<?xml version="1.0"?>
<opencv_storage>
<my_nn type_id="opencv-ml-ann-mlp">
  <layer_sizes type_id="opencv-matrix">
    <rows>1</rows>
    <cols>5</cols>
    <dt>i</dt>
    <data>
      128 128 128 128 10</data></layer_sizes>
  <activation_function>SIGMOID_SYM</activation_function>
  <f_param1>1.</f_param1>
  <f_param2>1.</f_param2>
  <min_val>-9.4999999999999996e-001</min_val>
  <max_val>9.4999999999999996e-001</max_val>
  <min_val1>-9.7999999999999998e-001</min_val1>
  <max_val1>9.7999999999999998e-001</max_val1>
  <training_params>
    <train_method>BACKPROP</train_method>
    <dw_scale>1.0000000000000000e-003</dw_scale>
    <moment_scale>1.0000000000000001e-001</moment_scale>
    <term_criteria><epsilon>9.9999997473787516e-005</epsilon>
      <iterations>10000</iterations></term_criteria></training_params>
  <input_scale>
    1.1137629355354379e-002 -4.1181384541422816e-001
    8.2784378611911579e-003 -7.1774056256527341e-001
    7.9211486592821248e-003 -1.1513389576266568e+000
    9.3911269033607782e-003 -1.8559214542766738e+000
    1.2792447766954561e-002 -2.9195563916132046e+000
    8.2784378611911597e-003 -1.3932610920384723e+000
    8.4422703754330284e-003 -6.7812536790665801e-001
    2.2988642421982321e-002 -1.7586311452816475e-001
    1.0982588894337331e-002 -4.2008402520840293e-001
    7.9454990046383123e-003 -1.1751393027860064e+000
    8.5176050313604691e-003 -1.5095325516828590e+000
    1.0696955403725112e-002 -2.2912878474779186e+000
    1.8916983144899924e-002 -4.6067583203617541e+000
    1.1475850491663973e-002 -2.5312857221987808e+000
    7.8447063530980941e-003 -1.0202040612204073e+000
    1.6512782766010176e-002 -2.5264557631995571e-001
    1.5369839248423934e-002 -2.7435163058436723e-001
    7.8624238484207229e-003 -1.0726311735207972e+000
    7.8572931343221675e-003 -1.0619131671036410e+000
    7.8572931343221675e-003 -9.4169658214851171e-001
    7.9733694055122029e-003 -1.1995934270593109e+000
    8.9404069134814326e-003 -1.6870547845739463e+000
    8.0220171189021323e-003 -1.2375966910186265e+000
    1.3703069761070826e-002 -3.1448545101657543e-001
    1.3071895424836602e-002 -3.3333333333333337e-001
    7.8447063530980941e-003 -9.8019605881960692e-001
    8.0220171189021305e-003 -8.0801767430141702e-001
    8.7826276228369308e-003 -6.1588176205143974e-001
    8.0401212559287217e-003 -7.9959005890211143e-001
    7.9589877849409549e-003 -1.1872820028185671e+000
    7.9102638021768621e-003 -1.1396712572986314e+000
    1.2292473028026468e-002 -3.6047677154687618e-001
    1.4061764156166258e-002 -3.0478873808490364e-001
    7.9733694055122029e-003 -8.3361577134630083e-001
    8.4067933893386682e-003 -6.8599434057003528e-001
    8.1699346405228763e-003 -7.5000000000000000e-001
    8.1953175417051362e-003 -7.4188112046285748e-001
    7.8447063530980941e-003 -9.8019605881960692e-001
    7.8572931343221675e-003 -1.0619131671036410e+000
    1.1475850491663976e-002 -3.9505615317553233e-001
    1.8916983144899910e-002 -2.1707238158772646e-001
    7.9002251375037275e-003 -8.8640526042791823e-001
    7.8529595972040601e-003 -9.5118973121134176e-001
    7.9886579261717761e-003 -8.2502864732539027e-001
    7.9328899988105675e-003 -8.5972695362109530e-001
    7.8529595972040601e-003 -1.0513149660756935e+000
    7.8466690508077804e-003 -9.7043679485865220e-001
    1.2067793233267914e-002 -3.6927447293799820e-001
    2.8011204481792715e-002 -1.4285714285714282e-001
    7.8683564108345885e-003 -9.2295820699089726e-001
    7.9102638021768621e-003 -1.1396712572986314e+000
    7.8910232414802720e-003 -1.1167770642504955e+000
    8.0792710140228340e-003 -1.2773327473170100e+000
    8.7826276228369308e-003 -1.6236882817719775e+000
    7.8494193041709383e-003 -9.6076892283052284e-001
    1.3071895424836602e-002 -3.3333333333333337e-001
    3.2262355678028515e-002 -1.2340351046845907e-001
    7.9733694055122029e-003 -8.3361577134630083e-001
    7.8750962432236563e-003 -1.0944415004020076e+000
    8.1953175417051362e-003 -1.3479248526719523e+000
    1.0099390178381068e-002 -2.0989057638220454e+000
    1.0207435417555951e-002 -2.1343747458109492e+000
    7.8826495314448016e-003 -1.1055415967851334e+000
    1.2533387688246923e-002 -3.5156152465532620e-001
    2.8011204481792715e-002 -1.4285714285714282e-001
    8.4791911777335402e-003 -6.7028006259983630e-001
    7.8466690508077804e-003 -9.7043679485865220e-001
    7.8435294411789216e-003 -9.9004950371280931e-001
    8.1224806013228765e-003 -1.3048765086025202e+000
    9.0564748108176597e-003 -1.7320508075688774e+000
    8.1953175417051362e-003 -1.3479248526719523e+000
    1.0835915657723976e-002 -4.2828956637154014e-001
    2.1338414187880125e-002 -1.9044534662683013e-001
    8.0220171189021305e-003 -8.0801767430141702e-001
    8.2218418566424971e-003 -7.3379938570534287e-001
    8.8331683450913190e-003 -6.0816364055953731e-001
    7.9454990046383105e-003 -8.5096294339676304e-001
    7.9589877849409549e-003 -1.1872820028185671e+000
    8.0792710140228340e-003 -1.2773327473170100e+000
    9.7140274128099530e-003 -5.0780078300464027e-001
    1.7201351502216182e-002 -2.4124895481858197e-001
    7.9733694055122029e-003 -8.3361577134630083e-001
    8.1224806013228765e-003 -7.6635604473481334e-001
    8.9404069134814360e-003 -5.9274897836381923e-001
    8.0591993210079784e-003 -7.9121189333995823e-001
    7.9102638021768638e-003 -8.7744601225646857e-001
    8.0792710140228340e-003 -1.2773327473170100e+000
    8.9972873921790580e-003 -5.8504861267644326e-001
    1.5907331653232094e-002 -2.6366402215232193e-001
    7.8572931343221675e-003 -1.0619131671036410e+000
    7.9102638021768638e-003 -8.7744601225646857e-001
    8.4791911777335402e-003 -6.7028006259983630e-001
    7.9454990046383105e-003 -8.5096294339676304e-001
    8.0401212559287217e-003 -7.9959005890211143e-001
    8.0220171189021323e-003 -1.2375966910186265e+000
    9.0564748108176597e-003 -5.7735026918962584e-001
    1.6512782766010176e-002 -2.5264557631995571e-001
    8.1003573254011339e-003 -1.2909944487358056e+000
    7.9886579261717761e-003 -1.2120791238484128e+000
    8.0401212559287217e-003 -7.9959005890211143e-001
    7.9328899988105675e-003 -8.5972695362109530e-001
    7.8826495314448016e-003 -9.0453403373329100e-001
    7.9454990046383123e-003 -1.1751393027860064e+000
    8.9972873921790580e-003 -5.8504861267644326e-001
    3.9413247657224003e-002 -1.0050378152592120e-001
    8.0401212559287234e-003 -1.2506408613597131e+000
    8.1699346405228763e-003 -1.3333333333333333e+000
    8.2218418566424971e-003 -1.3627702877384940e+000
    7.8826495314448016e-003 -1.1055415967851334e+000
    8.1699346405228763e-003 -1.3333333333333333e+000
    7.9454990046383123e-003 -1.1751393027860064e+000
    1.0982588894337331e-002 -4.2008402520840293e-001 1. 0.
    8.9972873921790580e-003 -5.8504861267644326e-001
    8.1699346405228763e-003 -1.3333333333333333e+000
    9.7140274128099512e-003 -1.9692762072618972e+000
    1.1137629355354379e-002 -2.4282816402011385e+000
    8.9972873921790580e-003 -1.7092596723292164e+000
    7.8683564108345868e-003 -1.0834726777719226e+000
    1.2067793233267914e-002 -3.6927447293799820e-001
    5.5598525883006740e-002 -7.0888120500833582e-002
    1.2792447766954566e-002 -3.4251778896020851e-001
    8.2218418566424971e-003 -7.3379938570534287e-001
    8.6872909850313866e-003 -1.5839103288458474e+000
    8.9972873921790580e-003 -1.7092596723292164e+000
    7.9328899988105675e-003 -1.1631599960755994e+000
    9.2490083356500004e-003 -5.5424682451382623e-001
    1.5907331653232094e-002 -2.6366402215232193e-001</input_scale>
  <output_scale>
    5.2631578947368418e-001 4.9999999999999994e-001
    5.2631578947368418e-001 4.9999999999999994e-001
    5.2631578947368418e-001 4.9999999999999994e-001
    5.2631578947368418e-001 4.9999999999999994e-001
    5.2631578947368418e-001 4.9999999999999994e-001
    5.2631578947368418e-001 4.9999999999999994e-001
    5.2631578947368418e-001 4.9999999999999994e-001
    5.2631578947368418e-001 4.9999999999999994e-001
    5.2631578947368418e-001 4.9999999999999994e-001
    5.2631578947368418e-001 4.9999999999999994e-001</output_scale>
  <inv_output_scale>
    1.8999999999999999e+000 -9.4999999999999996e-001
    1.8999999999999999e+000 -9.4999999999999996e-001
    1.8999999999999999e+000 -9.4999999999999996e-001
    1.8999999999999999e+000 -9.4999999999999996e-001
    1.8999999999999999e+000 -9.4999999999999996e-001
    1.8999999999999999e+000 -9.4999999999999996e-001
    1.8999999999999999e+000 -9.4999999999999996e-001
    1.8999999999999999e+000 -9.4999999999999996e-001
    1.8999999999999999e+000 -9.4999999999999996e-001
    1.8999999999999999e+000 -9.4999999999999996e-001</inv_output_scale>
  <weights>
    <_>
      -9.7601700953319354e-003 -1.7629081327498849e-002
      2.7556911932389898e-002 2.9520490635957016e-002
      -1.6535825032757547e-002 2.3651885237819831e-002
      6.3598376926315175e-002 -5.1237692574425614e-003
      -3.2383735990951477e-003 -3.2222010421355363e-002
      2.8696307372849516e-002 -4.3380340420604811e-002
      9.0860249448353227e-003 -1.7493598809727621e-002
      -2.4415225021217658e-002 1.2554817017412651e-002
      1.2987087565713833e-002 -1.0751139630066558e-002
      -1.7537541905854413e-002 8.5505647753369076e-003
      1.4104473428471388e-002 -6.6862116950042608e-003
      3.7299959415889462e-002 -2.0841513195747816e-002
      -2.6816152978267879e-002 9.4589984807710928e-003
      -1.8663592998905892e-002 5.2328003473431518e-003
      -2.8928928724537242e-002 3.9912754363383334e-003
      -3.1432081756355389e-002 -1.1194164316622502e-002
      4.5470505990458494e-002 5.9018421672196002e-003
      2.2998375663812853e-002 9.5871461687863091e-003
      -2.8434795393259219e-002 -4.3376385352747647e-002
      -2.4000006207414177e-002 4.0879120005137947e-003
      2.5750453621539465e-002 2.9868283995951532e-002
      1.6908142893201899e-002 1.1004379502107052e-002
      -9.5631913049739475e-003 2.7898772433061752e-002
      5.6341754271633706e-003 1.0570060579789750e-003
      1.7839283066351273e-002 -1.8591304751123482e-002
      7.4249256314913139e-003 -2.7558855796175113e-004
      -3.8184338919052799e-004 1.3808140891334603e-002
      3.7750774992475117e-002 2.5356616225766692e-002
      -1.5878336139563852e-003 3.5187855702389824e-002
      -2.7506878925272014e-002 1.5534375204726862e-002
      6.3766038606528916e-003 4.6709718101866075e-002
      2.7948634546869161e-002 -5.8810183199751479e-003
      -3.7646762570359010e-002 2.2910564765141764e-004
      -3.6467655876121823e-002 -2.5152443354525063e-003
      -4.0103349172793956e-002 2.1699651957334729e-002
      1.9906067331286494e-002 -2.1106006887180243e-002
      -3.9485603293799812e-002 -6.7967076838654883e-002
      2.3412179402378594e-002 -1.0633707190686201e-003
      4.0188638632851610e-002 -1.8930052144350656e-002
      1.0986330758734157e-003 -2.4677311923202293e-002
      -9.1511463496997021e-003 5.2246770536464801e-002
      -1.4251082552599520e-002 6.0369799331676931e-002
      1.5461396927483378e-003 3.4154278718228681e-002
      -2.3965161540484607e-002 -7.5561582596966456e-003
      9.7620347655146857e-003 -4.3479046415608902e-002
      5.3151462271123278e-003 -1.1220508572628442e-002
      2.6433271988270117e-003 -3.2951875221616266e-002
      3.1888164873523014e-002 7.3423758839431352e-004
      3.4352947642000295e-002 5.0779726790408347e-002
      -3.8700567177697522e-003 1.6993435355755874e-002
      -2.2173025648867750e-002 4.3678358981733903e-003
      -3.5912546434593767e-002 7.3559010475520846e-004
      -2.8428147346328349e-002 -2.9070559648895294e-003
      3.6452796035191380e-002 -3.2421377681532131e-002
      3.0047914157398520e-002 -1.5234195105400559e-002
      -3.2330880034864770e-002 -1.0607137936315458e-002
      3.6261114718724133e-002 -2.5235864723092506e-002
      5.0347384214704345e-003 -1.9714569383153290e-003
      1.7393098261426921e-002 -2.0989973790978594e-002
      4.3882687601481986e-002 2.1745380601412359e-002
      -8.8816047137499625e-004 2.0747587250574823e-002
      -3.6416002106561915e-002 1.6530046618033603e-002
      -3.0865593300370120e-003 2.3668289480243437e-002
      1.2051346223237306e-002 -3.2264898286623059e-002
      4.7046633948687640e-002 1.4497061896053686e-003
      5.1143540154770836e-002 4.4566795443504045e-002
      -3.0055475524925240e-002 8.6596195687234680e-003
      1.8122300018461459e-002 -8.5336417730238409e-002
      -7.6909294412964888e-002 -4.7517926026514785e-002
      -2.4960480649409155e-002 -4.3456646717925158e-002
      4.9161170858662076e-002 -4.6843397276037396e-002
      -2.4990489547181405e-002 3.1602740216424893e-003
      -1.5915059707995130e-003 -4.8757792255203353e-002
      -3.4481917612862442e-002 2.2648434436691182e-002
      -6.8674151443010490e-004 1.3736911720110328e-003
      8.2257286955347259e-002 -3.2206502050378880e-003
      -8.5806972578431687e-002 -1.9521017429053798e-002
      -2.4175037726943936e-002 3.0090725671666103e-002
      3.2328908322104999e-002 -2.0297659509403421e-002
      -4.7317948531453088e-002 1.7902359093116861e-002
      5.3036745633625114e-002 -4.0130173846447327e-002
      2.0240850619400477e-002 -1.9208298970013072e-002
      -2.0664639950794175e-002 -7.3624799914434005e-002
      -5.1333645785240321e-002 -5.5045558958400744e-003
      2.9838242665543580e-003 2.1383357515414132e-003
      4.0678128861582646e-002 6.6624046468260608e-003
      6.2796712624953290e-003 -1.1766841411808195e-002
      -2.3044360439329559e-002 -1.3633555390332187e-002
      2.5664988603519096e-002 3.8822824269139869e-002
      3.1501127462239688e-002 2.1373479141580984e-002
      3.4316009999023227e-002 -2.4744290101762604e-002
      6.9604451924594787e-002 1.7543671164167125e-002
      2.7317573101450027e-002 3.7420684281109047e-003
      -3.1567122960055538e-002 4.1514448650879021e-003
      1.3046860544817860e-002 3.5026368056396646e-002
      -1.3410001731603888e-002 2.7571241165507417e-002
      -4.9370904861642917e-002 -3.0229124983101801e-002
      -6.6129007921154337e-002 3.6355539794195368e-002
      -1.3802369327610857e-002 7.2591924966265431e-002
      5.5141577090002114e-002 -8.7277765677155117e-002
      -1.8759653727363469e-002 -4.5189825832794961e-002
      6.9056427784574617e-002 3.2974300321896223e-002
      1.0666846858822845e-001 -1.8787641837290831e-002
      1.3864723107186729e-002 2.1447503651468011e-002
      -8.0674459476960184e-003 3.6702140702631655e-002
      3.8262807091427015e-002 6.8622595514945317e-002
      -1.1515090839839457e-002 1.0004758978879624e-001
      -1.0181569482945625e-001 1.1422268051809204e-002
      2.9490317736350288e-003 -2.0973691805419598e-002
      1.8078376500596429e-002 -3.8576782158494353e-002
      -2.1111931082144358e-002 -3.4957266685753455e-002
      1.1316819325008052e-002 -1.2447086283883510e-002
      -9.9072349668199240e-004 6.6492009076219133e-002
      8.0030386377703908e-003 -1.6226091005366414e-002
      3.7010009203755308e-002 -4.9148847224452556e-002
      -1.0195457524241806e-001 -8.5102354420155749e-003
      2.3258929663602206e-002 -7.1851323707269798e-003
      7.7582301423997371e-002 -1.7587213386956926e-002
      3.5238656350161920e-002 8.2748631453454825e-003
      1.4477874313783884e-002 2.0992019450424160e-002
      6.0084921441465270e-003 -2.9791167598276224e-002
      1.0733179540161081e-002 -2.7694766899531747e-002
      -1.5835637614751262e-004 8.2772687055895963e-003
      6.9999141377535212e-002 7.6830077160791085e-002
      3.8789306375594995e-002 5.4528009202849212e-002
      -3.1449800963820537e-002 -3.8683167248572847e-002
      1.7382051117733350e-002 6.0144333944427503e-002
      -3.1596098357494315e-002 3.6089149841525112e-003
      5.8037329487400632e-002 9.8819108029448034e-003
      1.8923435947420016e-002 1.3769451358881059e-002
      -1.8054948376814661e-002 -7.9372507568052566e-004
      2.0566208327514972e-002 -3.8258863375005302e-002
      -1.8945995728945045e-003 -2.8803289062897090e-002
      -2.8982681060305644e-003 -2.1513545831465244e-003
      6.1194637596744816e-003 -2.7733201988854869e-002
      -1.9971293265539734e-003 -6.1957858725472381e-003
      3.2047373380530736e-002 -1.8021487881750349e-002
      6.9239031508509319e-003 1.1686589350385483e-003
      -9.9878598291257148e-005 -1.7697448341588148e-002
      6.6362367269180537e-003 2.3637386496842944e-003
      -1.7159253765318849e-002 -6.4215927956311544e-005
      -1.4392488641434546e-002 1.4357284335432199e-002
      -1.8250587191986568e-002 -2.7161596503508020e-003
      -2.3957497944439309e-002 2.3193419757752621e-002
      8.8032040718814611e-003 3.4056268414955149e-003
      2.5153287116160727e-002 -1.7650739098388282e-002
      -1.3860436671164099e-002 -2.9854555351334251e-002
      -2.7465112906356972e-002 -2.3613963448063961e-003
      -5.7572189534436354e-003 -2.6426557684783832e-003
      -1.2635657282484686e-003 -1.3767739639779309e-002
      -6.9023613092533871e-004 1.7947616952379061e-002
      -2.6703368013382252e-002 3.8171517072583105e-003
      1.2604146249335953e-002 2.1239700331709459e-002
      4.4066203782048121e-003 -1.5739881168818401e-002
      1.2973742448217668e-002 1.8081089968535691e-002
      2.3034776451066913e-002 2.6005600508503535e-002
      6.5050501246775860e-003 3.0935351367187044e-002
      -2.3764411841916210e-002 2.2884396148685454e-002
      1.3355429335754780e-002 2.0807643618210515e-002
      8.2854951122222718e-003 1.1345685152800034e-002
      -2.4042110843772647e-002 -3.9187195935025190e-003
      -2.2987140666615908e-002 -9.7095074031446314e-003
      2.3018977726321586e-003 -2.1405952146407404e-003
      2.0763885254137821e-002 9.6050715478126559e-004
      -1.6935900797500351e-002 -3.3700744098539390e-002
      3.6405365505034169e-002 5.1334980284064042e-003
      4.2947799011977046e-002 -1.6063483248442575e-002
      1.6064306827975966e-002 -1.8815272344074103e-002
      -2.5883661333460477e-002 4.8753756421470285e-002
      -1.5598877806522278e-002 4.8729074103968796e-002
      -1.1081633733038897e-002 2.6253679397304726e-002
      -3.9534814800099419e-002 5.8840207920810607e-003
      3.3780405792868860e-002 1.0041910000900996e-003
      1.1638656434691204e-002 -2.0413594345663366e-002
      5.1616961934585317e-003 -3.0626815360173719e-002
      -7.0534550021934339e-003 7.8823404855408175e-003
      2.3346183370629239e-002 3.7793290182047294e-002
      2.7811180980484587e-002 -1.8546806596017392e-003
      7.7787712538944910e-004 -2.3252740679039301e-002
      -2.0648727763221658e-002 -2.0643154403307336e-002
      -1.2706849576396074e-002 3.4059982479705902e-003
      1.5353999379495786e-002 -6.9545894790626131e-003
      2.0192076128013804e-002 2.2734023918173682e-002
      -4.1113575531657913e-003 -2.5068665753940943e-003
      1.1146924508032655e-002 1.2546744008713922e-002
      1.9482297860253316e-002 7.8519615360645081e-003
      1.5857198048407711e-002 1.1283446364600297e-003
      3.8052249150348882e-002 1.6796893432236660e-002
      7.9785717926655446e-003 -1.3716347221619728e-002
      -1.0991185469802342e-002 -9.6656166031281361e-003
      1.6782087409349545e-002 3.3419690391896073e-002
      1.4244319644743257e-002 1.0233365014044203e-002
      9.0628361174003483e-002 -1.0483594607815708e-002
      4.0196648375143883e-002 1.3060331333476942e-002
      1.5233765039626285e-002 -1.0238457451758829e-004
      1.2845294008155799e-002 -3.9181777732418015e-004
      -4.8304008971978372e-003 -3.3683857659717563e-002
      1.2754156262158126e-002 -3.4515135852078792e-002
      -3.5859978423637827e-002 9.9847739201117114e-004
      -2.5696700626443643e-002 -3.8120363761666193e-002
      2.7485044196798546e-002 1.2749932110520416e-002
      8.5592677821731897e-003 1.3707282256874230e-002
      -3.8786172331057235e-003 -4.2394395522316143e-002
      3.6055463055270000e-002 -3.3237257915988465e-002
      1.7516924133140755e-002 5.1875803772303192e-002
      3.8953254189596997e-002 4.1356648150833487e-003
      -2.1466750040608520e-002 3.0436918663192267e-003
      -4.4628122254367717e-003 3.0895932382711731e-002
      3.5639287736626214e-003 2.3412851356632389e-002
      -9.4057286812566216e-004 3.0533902384484854e-003
      -4.1293524259941691e-002 6.4893209282659891e-003
      6.1308471433120428e-003 1.6539341980609218e-002
      8.1660708165054805e-003 1.5719484286998237e-002
      -1.0554341367212764e-002 -2.7212405525823321e-003
      -5.0526602271492877e-003 3.2326010469784075e-002
      6.5051803830050011e-003 -4.0203300228668984e-003
      9.6412907440188243e-003 -2.5765840677805872e-002
      -2.0573260495105643e-002 -4.5141832070299266e-002
      3.9567684797998711e-003 1.2558119646909857e-002
      -1.2631056358907993e-002 -2.0165113158559646e-003
      -1.3465398038008999e-002 2.4907113267632366e-002
      -3.7610849392164136e-002 3.7450487922139633e-002
      2.4684786815855897e-002 -4.7976277877430197e-003
      4.1009719202335287e-002 -3.7102887760359936e-002
      -2.2620380180859996e-002 -1.6565289622485361e-003
      -5.4637212430229615e-004 -3.0024605499414155e-003
      -4.9307045948369654e-002 -4.7277122514868465e-002
      -4.9374450667635629e-003 4.8513853498921448e-002
      -1.6585556891500600e-002 -2.2547070020073980e-002
      8.0951785381880824e-003 -1.7427145727097922e-002
      2.3474596059611975e-002 -1.4768778974957467e-003
      5.3179408545468449e-003 -3.9264202871843810e-002
      -5.7446120786498536e-002 5.2042673497770475e-002
      -2.9572402017276834e-002 4.6601713280679843e-002
      -1.6541381927250826e-002 -2.8342929333148775e-002
      -9.3023730500171493e-003 -3.4584786755823297e-003
      2.0264976940486980e-002 -2.0968558000345850e-002
      5.8007098224166350e-003 2.6628570447799777e-002
      2.7828504183288472e-002 -1.9224332689662883e-002
      1.9138899510953277e-002 1.8247886941634515e-002
      2.5574260862426087e-002 3.5268047736522111e-002
      1.9477898472925539e-002 -9.5880700046807653e-004
      7.1571804071635071e-004 6.4263161683203313e-003
      6.9995453413242592e-002 1.1729366709949574e-003
      -2.5807203579936249e-002 3.5622472421846484e-002
      9.4607739136664676e-003 -1.8940755648994778e-002
      2.4521334354330217e-002 -2.0515280371783091e-002
      -4.7029468403071817e-002 -1.5196903763562020e-002
      1.6079398232835228e-002 -1.5628826867916570e-002
      -1.6388317332298976e-002 2.0681610206336820e-003
      3.1857246847588512e-002 -4.1285386839454499e-003
      1.1675456552666679e-002 2.6417253209396321e-002
      2.8640533397364830e-003 -4.1290021378749986e-002
      -7.5587141581002753e-003 7.5279488289382735e-003
      2.6538318845638981e-002 1.6136614063607106e-002
      5.3303772981335686e-002 1.3970777555682792e-004
      1.7645066621931056e-002 9.0668593376069424e-003
      2.1386547818035246e-002 -1.9804126703629861e-002
      1.8730905195726028e-002 -9.6137048785573651e-004
      6.7210275533739622e-003 -1.0162522188849334e-002
      1.3239179682000715e-002 -7.5644135289698877e-003
      7.4819643576813748e-003 -1.1026460480388633e-002
      -2.7302025283650916e-002 9.8126514403990336e-003
      3.3482273194686022e-003 -2.4659264848286365e-002
      -1.1543682385223257e-002 5.1071576645211371e-003
      9.1868719646961989e-003 2.4806625063568976e-003
      6.1382462616646960e-003 -1.6746724039209940e-003
      1.3673737372163626e-002 -1.0191821192735234e-002
      1.2354929659566725e-002 -3.1007774444334396e-003
      -5.4006821529178723e-003 -3.8803585471957371e-003
      -6.3965619118472698e-003 -1.0031205212448879e-002
      2.0715538811903834e-002 1.9550020167138252e-002
      -1.0221830553549421e-002 -1.1127324787916610e-002
      7.6772051954510428e-003 -6.3413204039374448e-004
      1.1346724778578869e-003 8.6489270538379504e-003
      9.4704307054804173e-003 3.9710831276175114e-003
      4.7726372940183866e-003 7.0615153447702297e-003
      -8.0599396604616371e-003 3.0974741513354578e-002
      5.7199913379345378e-003 2.8483322110889726e-003
      1.0275870210596689e-002 1.9761941343049202e-002
      -2.8951776012167934e-004 -2.7391302593774668e-002
      3.4478680256806787e-003 -1.4436663701068437e-002
      2.9484615806598352e-003 8.6426720348810483e-003
      -2.8389300270195140e-002 7.9286073463313914e-003
      -2.2055283112335015e-002 -6.9626276048654770e-003
      4.5724742708677388e-003 6.9979021045553248e-003
      3.6940822250490523e-003 -9.1350803923794812e-004
      2.7434618130337798e-004 -1.4372195171856861e-002
      1.1245613377880709e-002 3.5467232947052740e-003
      9.6432559823800782e-003 -8.7656488951408616e-003
      -2.5444072175057796e-002 -2.5435054289393494e-002
      -3.5348720279941388e-003 2.9815089134161213e-002
      -1.3927281524648581e-002 -4.9068241613032708e-003
      -1.1100570401414067e-002 -1.0143179080762703e-002
      -2.2454640578936483e-002 -5.2526142646930653e-003
      -1.0643507560144896e-002 7.2049024753451669e-003
      -1.6531853539370121e-002 1.8614140232409767e-003
      5.0815688086816579e-004 -1.2618720413070210e-002
      2.0739210099407400e-002 -1.2784246937593551e-002
      -6.4263772309786711e-004 -6.1295484088923378e-003
      1.7248524018439695e-002 -2.1927963942379962e-004
      1.1103521391519634e-002 -9.7299493142725436e-003
      1.4962068357470040e-002 1.4695188256246808e-002
      -8.6260214335553682e-004 1.6436024263382216e-002
      2.5231056428406017e-002 1.4678349949128575e-002
      -1.8573158070273169e-003 -3.7817143129853454e-003
      1.7334979609243014e-002 -1.7027007454115884e-002
      2.8739153158125745e-002 3.3818188648521452e-003
      -2.7351011474817345e-003 5.7134104010622159e-003
      5.7398504592546936e-003 -1.4458495480432121e-002
      9.3561889425487158e-003 1.6307087534306895e-002
      2.4994823741670354e-003 -1.2246754627671531e-002
      1.2282754365533700e-002 1.3799278901046800e-002
      1.2464591916678095e-002 -3.8779669664076124e-003
      8.9898867164729789e-003 -1.3476231902943276e-002
      -2.0403938316279027e-002 -2.2678016014596524e-002
      3.4173711868696103e-003 -9.9894986557764465e-003
      -2.7971686182906015e-003 -4.2209425025041721e-003
      2.7307104019743647e-003 -6.2065093974016392e-003
      4.7808626285366354e-003 2.6648353096641966e-003
      2.3655296315462683e-002 -1.8889932541538552e-002
      1.3186929731356723e-002 1.8837718959208449e-002
      -2.3049150679081771e-002 3.7690594594964469e-003
      3.4442876713927824e-002 6.4920419638136067e-003
      -2.4175423397556840e-002 -7.6631035381489934e-004
      6.2337230061616355e-003 -9.2220309193740517e-003
      1.2457624880180495e-002 -1.5041553882025348e-002
      -3.2817807902185574e-002 -1.9462440573464273e-004
      2.9118137949035294e-003 -1.8554330124724763e-002
      8.6238378285132099e-003 -3.4969659983032876e-003
      6.5143153705728212e-003 1.0644795363825689e-002
      3.3008376308259889e-002 -1.9615937909981104e-002
      -7.8017138089635533e-003 5.3849761209384846e-003
      4.0250443218438963e-003 -6.4267699998579435e-003
      -1.0622167289704710e-002 -1.0152331945375879e-002
      -2.0542143285951272e-002 -1.8375341089521980e-002
      1.9497407901671548e-002 6.5952744926672767e-003
      2.0926297780507240e-003 1.2511716348980750e-003
      1.0713470497418303e-003 -1.1849728951057554e-002
      -2.4311426550505978e-002 -1.7791662433348562e-002
      9.6235451051227341e-003 2.0092644339549874e-002
      4.5512467034091830e-004 -1.3663714606475085e-003
      -3.9570224635364958e-003 1.4999814650216920e-002
      -1.3802563079346922e-002 4.1305359595269712e-003
      -5.7829190421035863e-003 -1.6177904216874490e-002
      1.8420692183395593e-002 1.2100708052860157e-002
      -6.1214756617250813e-003 6.6088444507662420e-003
      1.7474941777797622e-002 2.3254642792108107e-002
      1.0333103046893374e-002 1.6498522989404133e-002
      -2.1316192308897153e-003 1.2436897365092023e-002
      -1.3630304515823553e-002 1.4468034377688279e-002
      -1.1876722253244895e-002 1.5448742276628558e-002
      -2.2794591679471451e-002 7.0975082416777002e-003
      -1.9116584062191390e-002 -4.3219793978842107e-004
      -1.8131947717133581e-002 2.2230541477321342e-002
      -4.8867722616825733e-003 -2.5627281796577944e-002
      -2.2159687162827041e-002 -3.7478829204999613e-002
      1.0494684577377282e-002 -3.5911951528947148e-003
      7.9438479509091522e-003 5.1895683232582850e-003
      1.0748095611345982e-002 -2.0936875170583805e-002
      -4.9962565891002236e-003 3.6553812481790161e-002
      7.0138627523551053e-003 2.2559972982623598e-002
      -4.4608180639545856e-003 3.9233135195744714e-003
      -3.1391309378210892e-002 -6.1614509865105666e-003
      -5.3759603061245085e-003 -1.1538196266981339e-002
      -6.3134199169691532e-003 -3.7498914514712748e-003
      5.9878840446631271e-003 -1.2161822837925173e-002
      1.3682842508921662e-002 2.1668561037420198e-002
      -3.2938146956988682e-003 3.1349644530842997e-003
      -1.2255849013916801e-002 1.3401996394315229e-002
      -1.8757700469757582e-002 -4.9983394321936030e-003
      -1.6290321942845472e-002 -1.4248977865465433e-002
      -1.8945653206201420e-002 -4.5480916156788670e-003
      1.6815773101108478e-002 -8.6963696189849993e-003
      -6.5237287544585897e-003 3.3368833761986964e-003
      -7.6310231620311773e-003 -3.4153716011690828e-003
      -2.8583279773854864e-004 -8.3906362871636574e-003
      1.4738864940678663e-002 -9.2091948982910878e-003
      -1.9419987329941165e-003 8.1705007111399774e-003
      2.5139949799632175e-002 3.2016922913203627e-002
      -5.9097260171266774e-003 -3.8299341373735007e-003
      -2.3945715775083444e-003 2.6581786676373683e-003
      -9.2549704867728837e-003 2.4592462914962188e-002
      1.7116054016192407e-002 -9.7774054339662738e-003
      -6.1645854348417059e-002 2.5725890847253883e-003
      2.8370342680474154e-003 8.3749646569551543e-004
      -3.6229251203578845e-002 -1.8427204142084819e-002
      1.7655155309855942e-002 -5.7586088366560303e-002
      -1.2264088453507640e-003 -1.6620306064345717e-003
      -1.1768920436071122e-002 -3.4608353022840448e-003
      3.4354012768200180e-002 -3.9489823115365655e-002
      -2.2379924650599747e-002 2.5015405155907753e-002
      -3.4197390040961347e-003 -4.4805526156668538e-002
      -3.7752431784114832e-002 -1.2360806091739599e-002
      -1.7602433516050009e-002 4.3011296512574182e-002
      9.2071262380933275e-003 -2.3156492966693604e-003
      -5.6850671060592453e-002 -4.3282874487914576e-002
      -3.3256506495570055e-002 2.8853968788393726e-002
      1.4598842880155593e-002 -6.9919301498256288e-003
      -3.6125847558265846e-002 -1.9354054152744920e-002
      2.5118505055740786e-002 -1.9805426584722476e-002
      1.9569403495616089e-002 -2.8970091070930484e-002
      -8.6579506083592182e-003 -4.0505843127077321e-002
      -4.9099081073637411e-002 -4.7324068436151402e-003
      1.1125781260701420e-002 1.1636844883204536e-002
      5.0601245075305785e-002 -5.2136473014155098e-003
      2.4850234734166785e-002 -3.2470682706869057e-002
      -2.2521198920081725e-002 8.5501708885614989e-004
      -1.8276991282045390e-002 3.0203069293882442e-002
      3.0786188689292858e-002 3.7491255982362422e-002
      -9.6087520994893177e-003 -5.5553215363245362e-003
      6.9886705663474269e-002 1.7399811854045908e-002
      5.4068160627539375e-003 -1.1563170707688716e-002
      9.8544503687490199e-003 -1.2176784856080813e-002
      -8.4971868020009243e-003 3.3104103424834525e-002
      -3.1093871820542063e-002 5.7374966225495157e-002
      -3.5065784115768175e-002 -1.4951179937399061e-002
      -4.6212130024478708e-002 -7.6489235351715899e-004
      1.2448088379653577e-002 6.3138156619690231e-002
      3.4684563603239113e-002 -7.4864236133658751e-002
      9.6998814293076628e-003 -2.5729591099027869e-002
      2.8777654532515195e-002 2.3935927182048233e-002
      2.1192188489975523e-002 1.3084098295717980e-002
      -1.7202884882133263e-003 1.5680418367286505e-002
      2.0306831836221534e-002 2.0354548585163702e-002
      2.7823519493445938e-002 2.6472927869504333e-002
      -1.5435856965504492e-002 5.5226371276292277e-002
      -3.3828776109028652e-002 1.9502691448190685e-002
      -5.4889865627373111e-003 -1.3191363714728892e-002
      -8.6131788955198588e-003 -2.5105695206815666e-002
      -3.5653336347317634e-002 -9.6968138184395578e-004
      9.1585723838145880e-003 -3.7566375878436267e-002
      -1.9080367990490590e-002 1.1575353222454838e-002
      -7.4055706746623843e-003 1.6578350636651792e-002
      1.9642562689181887e-002 -2.7823219255968642e-002
      -9.8371634562065519e-002 1.0383113046617662e-002
      6.2851188833281009e-003 -1.4634029006131923e-002
      3.0498021821683319e-002 9.0856113993182698e-003
      1.7864865002842550e-002 8.0513234971097310e-003
      2.8707990613518506e-002 -1.8404696022848065e-002
      1.1735146370075243e-002 -4.8569879978738835e-003
      6.5161234363906081e-003 5.5375213404196145e-003
      -1.0574283716513716e-003 9.6204954098156326e-003
      4.9807946351209866e-002 4.5868982419061496e-002
      7.7895290367821033e-003 5.5681477134245864e-002
      -3.6120771985455692e-002 -3.5674231552926764e-003
      -1.0759076544905068e-002 1.1710645223411411e-002
      -3.8569960210769638e-002 1.2351650055266809e-002
      4.6931426737013678e-002 2.8037133671260307e-003
      1.4021916324385710e-002 5.1649351625793951e-003
      -1.4996674827270004e-002 4.1924901044170177e-003
      -2.4782755699884106e-002 -6.7104516095346945e-003
      -1.2114106676524513e-002 -1.2908265077045270e-002
      -2.1530505957700692e-003 -6.0547405044432947e-003
      7.2742965194791892e-003 -9.2616491358315442e-003
      2.4593164540632068e-002 -1.9339518297680009e-002
      -1.5780160458837955e-002 6.2025513535057136e-004
      1.7791045142146023e-002 -1.6316012724561353e-002
      1.5654742910803956e-002 -4.0339062343544077e-003
      5.7460934005497261e-003 2.1416727218186288e-002
      -4.5986039646190467e-003 -1.8058156583783111e-002
      -8.1812984715228434e-003 4.3691830881283665e-002
      9.3466496130688726e-004 1.3337854928309401e-002
      2.4864193178316071e-005 2.5657360590969045e-002
      4.0070012672772633e-003 2.2415236107032198e-003
      5.9684128989738825e-003 -3.4123891918459520e-002
      1.4656694820664246e-002 -1.3980695389498837e-002
      -1.7481459185920294e-002 2.6286396135294925e-002
      -3.3071295249383806e-002 -9.3869221642726656e-003
      8.2302421946780051e-003 -3.7865368629461854e-002
      2.2835551898883550e-002 1.6535572484051308e-002
      -2.3291907439843725e-002 -4.3775058062671670e-003
      8.0141875919450059e-003 1.9264421978075520e-002
      1.2102088723320185e-002 -1.5202953015151281e-002
      1.0642312249540377e-002 1.7846061854014085e-002
      -1.1242127865485185e-002 1.7145845212115970e-002
      7.0889855628425659e-003 8.3391180655811633e-003
      2.5846287711509082e-003 -2.8083954198885042e-003
      -3.0655276155526967e-003 -2.9591857757391281e-002
      6.7294435570207011e-003 2.2617060905358271e-003
      3.6818947527989882e-004 1.6362239919350038e-002
      3.1532407657715138e-003 4.2361666658725736e-003
      2.8499954922161678e-002 -9.5131885973611871e-003
      1.6929154613221035e-002 -2.6196152539384721e-002
      -3.0590556766766725e-004 1.1616065282180645e-002
      -1.0533302489918719e-003 1.8678035291867127e-002
      1.1706585136672507e-002 5.6660101328897209e-003
      2.9454529860032917e-002 -1.6790600346905927e-002
      -1.9205297731276917e-002 -9.1553170515685047e-004
      8.8401831934237056e-003 2.0777223395233278e-002
      -1.4842435136151322e-002 8.7900948392880934e-005
      -4.9646032159135602e-003 1.2080141852583860e-002
      1.1683884567528597e-002 -2.3894228577103710e-003
      3.3001826780705967e-003 -1.7265455164942621e-002
      -7.0322628820541390e-003 -5.9773817462421674e-003
      -1.0973875676059565e-002 -1.0626369833047671e-002
      -1.6886532594667936e-002 2.4128998686718549e-002
      3.8310456109409495e-002 2.4751855174870677e-002
      1.8594363385719345e-002 -2.6609828613180001e-003
      6.3726793140797908e-003 -2.9240365453430525e-003
      3.7243738517650768e-002 1.8303750111339039e-002
      6.1556922830321281e-003 6.4218518634607874e-003
      2.1308954074377960e-002 3.6324294822318859e-002
      1.9971177034083198e-002 1.2873631584492912e-002
      -3.3490549711415143e-002 2.0907615869452060e-002
      2.8233745192671349e-002 -1.3053551463862430e-003
      4.6909687007381656e-003 1.7568469787157748e-002
      6.3639381985488358e-003 -7.7495830408921057e-003
      1.8089748900306311e-003 -8.5621973937724256e-004
      1.3986552409112086e-002 -2.0322887352342545e-002
      5.4604309079772173e-003 -6.0015283845037230e-003
      2.9204404002673473e-003 3.1505865119092272e-002
      6.4190668957740379e-002 -7.6294121374111470e-003
      3.4284282286301732e-002 1.9241086512416107e-002
      -1.0064455196632788e-002 2.7183533291721001e-002
      1.7951055827461742e-002 -1.5584203985795561e-002
      -7.2341405280744089e-003 -3.0812745026891027e-002
      1.2139522053349402e-003 -2.6898396132756734e-002
      2.0567819742956822e-002 -4.0808713438296916e-002
      -2.0421321961993699e-002 1.2696997680064903e-002
      1.5225615041116370e-002 -3.4651771953168889e-002
      -1.4177695775558684e-002 4.3313765908391168e-003
      6.3810569812059112e-003 -1.4794254666729869e-002
      2.8131594096119407e-002 -1.9225485078793764e-002
      -3.3448603460202883e-002 1.4985696261498711e-002
      -8.7559750728520343e-003 3.1817597214017834e-002
      3.7450417991907628e-003 -8.3305109671728741e-003
      -5.2663692949745211e-002 -9.9728656102553315e-003
      2.6606529415178458e-002 -8.1819222328127165e-003
      2.2947482622882504e-002 2.3537274489956236e-003
      -2.7990539895312295e-002 -5.3055572267917413e-002
      -2.5020588319713929e-002 -2.7627604303679010e-003
      1.3497812816677095e-002 -2.8075083118246883e-003
      -3.9699086662998888e-003 -6.3586271367878583e-003
      -1.5664037152695938e-002 2.9495594091883431e-002
      -2.3030245187380751e-002 1.3647892975304815e-003
      1.3852294720082965e-002 7.6077358967913435e-003
      1.1826891745954768e-002 -2.1222095856301765e-002
      1.9830520375921045e-002 -5.9385608578416890e-003
      1.5189470396848301e-002 1.7687247860271545e-002
      1.5503219609381176e-002 1.6445063120446725e-002
      -2.8137511277172258e-002 1.7101185565757557e-002
      6.5435100169225179e-003 2.8271091224262912e-002
      4.8071608663786470e-004 2.0343962973928965e-002
      -2.9226525706083188e-002 -1.1259035641683322e-002
      -4.5627103238932890e-002 1.4142543852877613e-002
      -1.4593504570982834e-002 2.6403001075956629e-002
      7.5116435676164175e-003 -3.8318874799812240e-002
      -3.0098833175105904e-003 -3.6746782799602778e-002
      4.4056076491083063e-002 1.0431815990454963e-002
      5.4390391970365874e-002 -8.6835160799897931e-003
      2.6115821497317619e-002 -2.6042025260451882e-002
      -3.4560621281560129e-002 3.2340631821873952e-002
      6.1896816494761212e-003 3.2137375561012774e-002
      -1.5848301272251480e-002 1.9580452585505830e-002
      -3.2073492429649679e-002 -4.7308641658338540e-003
      9.0149516872665529e-003 -6.9857007509219991e-003
      -9.0537436314208387e-003 -1.5007164734928786e-002
      -9.9407325729599875e-003 -2.8802807840001266e-002
      1.3425578115512996e-002 8.4467319622739470e-003
      7.0629156105765731e-003 3.3337154354773545e-002
      1.4968170626576812e-002 -1.5452523708560595e-002
      2.8782396021315512e-004 7.3359170601197347e-003
      -4.0888734833013321e-002 -2.9205404707258836e-002
      -1.1943226886089429e-002 1.3699091273872747e-002
      3.8475201061006298e-002 4.1578737495224357e-003
      1.9367106831298893e-002 -6.9845511344260088e-003
      -8.0502572087504283e-003 1.8368066074965699e-002
      1.3581802303091875e-002 -2.4672527714259016e-002
      6.8406582730693730e-003 -2.2273857294015566e-002
      1.2131284990647766e-002 1.7692679885806136e-002
      4.4479545732363915e-002 3.8513926617903531e-002
      3.1367256845406151e-002 2.0695403454797858e-003
      -3.1815334218602123e-002 2.4493902885805298e-003
      -1.0589485068639914e-002 2.3575728169342731e-002
      1.7447038499654795e-002 -1.0692520411068770e-002
      8.1455239916522468e-002 1.6882021718584311e-002
      2.9781110348841414e-002 3.4394254022040126e-002
      -1.9436987339976189e-002 2.1765550399268561e-002
      2.0246130299413113e-002 -1.4939093556733984e-002
      -9.2138433679433904e-003 -3.4999055329660141e-002
      -2.1992477850794591e-002 -5.4172633221463646e-003
      1.8165071064187605e-002 -2.3969874911920010e-002
      -3.7881893781722575e-002 4.5940291148770414e-003
      1.6055141201542448e-002 -1.3408996350641867e-002
      -3.7356077801677892e-002 2.8965314550030957e-002
      -2.1441960464420703e-002 -2.3973293969966759e-002
      1.7292838599436856e-002 -1.2964385016200128e-002
      -5.2554307969565742e-002 8.3036439428535499e-003
      -7.4259804968842850e-003 -1.2388272519870021e-003
      -2.0386644517575755e-002 -2.8436094128237027e-002
      -5.2931183456934511e-002 4.0504047678918973e-003
      1.8037584834894180e-002 -2.1826964072197773e-002
      -4.0032896415644909e-003 -5.2113390803646565e-003
      -1.4004286377491893e-002 -5.0234959076280200e-002
      -4.0807952113121264e-002 -8.2232232062942855e-003
      9.6731295267254609e-003 9.5559659350121923e-003
      2.7257589176471125e-002 6.6077795478658571e-003
      -2.3628870578539435e-002 1.8668757195881252e-003
      1.3810613485688907e-002 -3.1412736205902749e-003
      1.4406884187830657e-002 4.8875257053037687e-003
      1.0727285933807491e-002 -9.6235414070381317e-003
      3.2507582181177060e-002 -6.9832313247170956e-003
      3.0210176835393544e-002 8.6169375562435389e-003
      -2.7714628015614558e-003 -9.6243184992783459e-003
      -2.8638088410079560e-002 1.4822450656960419e-002
      8.3945897839922644e-003 1.5679296368135247e-002
      2.8048785232256828e-002 5.2312939840270878e-003
      -5.3619862055011625e-002 -1.7392559403639263e-002
      -5.0625437144999987e-002 2.8272248672346578e-002
      -1.5135845567440544e-002 3.5417752378849275e-002
      8.5812335593473711e-003 -2.0256612797912712e-002
      -1.2431769891819263e-002 -1.7555152996827712e-002
      4.1821262024890025e-002 -6.6670215652506488e-003
      6.2140019499174914e-002 -2.3818595291723872e-002
      6.1289217660061273e-003 5.0507519606388419e-003
      -9.1890101191730734e-003 4.0096647915008006e-002
      1.5476756382794445e-002 3.3896553120973290e-002
      -2.3179218223674015e-002 4.4579092665012067e-002
      -5.6552509723923491e-002 1.3939335973573162e-002
      5.6024222522182161e-003 -1.7642281477540742e-003
      9.3932808579965978e-003 1.7369788845808861e-002
      7.1879426336832726e-003 -4.1341893088052049e-002
      -4.6297463198573148e-003 -1.0027230650629619e-002
      6.3997373471343690e-003 3.8667985842299420e-002
      -4.5824544620515018e-003 -5.7879251269831438e-003
      2.5234714517911741e-003 -2.9528941590606511e-002
      -4.1046810317957004e-002 -2.5645706844970084e-002
      -1.0998345607719355e-002 2.8638898474685325e-002
      3.8336551717912899e-002 -1.6217493754243896e-002
      2.7614718374393509e-002 -8.3918837129135521e-003
      -1.2669028629235595e-002 1.1896193940023635e-002
      -1.5920263069372908e-003 -1.3693007882601603e-002
      4.7733116769572157e-003 -9.0691900935841625e-003
      2.6951329308592953e-002 6.3690913430405277e-003
      3.6610529497291426e-002 4.9115636776628814e-002
      2.7009456913638347e-002 9.8023426061829757e-003
      -1.5108255627569244e-002 -1.4573603144554182e-002
      -8.5251797899361711e-003 5.6806630639213623e-002
      7.3680199511068018e-003 5.1534636222032885e-003
      2.5606119467137950e-001 4.6959942100741829e-002
      7.8320365014501223e-002 5.2066554029225651e-002
      -3.6718082114079848e-003 4.6992976888368086e-002
      -1.4224606124843050e-002 -4.1919642402924617e-002
      -7.7166871520370203e-002 -3.9743566623198050e-002
      -1.9654289306220703e-002 -3.8623883042413591e-002
      -3.1108165807207204e-003 -4.5494518026793725e-002
      -2.7545793326649869e-002 -6.8199583704288261e-002
      5.2816143268333018e-002 -2.4984340905188491e-002
      -7.0493167807018781e-003 2.0140401333969618e-002
      2.4696119963042405e-002 -9.2157721730851364e-002
      1.0284217234193757e-001 -3.2385447046512972e-002
      -3.3395823524496160e-002 2.0739099455355587e-002
      3.2960259313701425e-002 3.6838691359942645e-002
      -2.7848888731392039e-004 -1.7240189769956650e-002
      -2.9435821426433202e-002 8.0316280324670281e-002
      1.8218247229656939e-002 4.7816077371810725e-003
      1.7823606368660014e-002 -2.6454862809462167e-003
      -9.5269792586619908e-003 -3.2174798633036475e-002
      -3.1543567444018837e-002 4.9964384765268750e-003
      -3.4255406755855686e-002 -1.4072551287411859e-002
      -8.6408001361545082e-004 -4.3435161689393681e-003
      -2.0025160908895476e-002 3.2341395674608579e-002
      -3.6650306787241127e-002 7.4983945557268970e-003
      6.4672562514093174e-002 -1.7539813236942540e-002
      -2.4699022221888862e-002 -3.8179460057964701e-002
      5.8107540798531067e-002 1.8141618592709456e-002
      1.2693376932221855e-002 1.0364944048395665e-002
      -1.6188163250133872e-003 -3.1726563536668266e-003
      -7.6394133615848223e-002 -1.2451664093624346e-003
      2.8591368760171626e-002 -1.7876136344891459e-003
      3.1129775591071773e-002 -6.5035314783418965e-002
      -6.4204949871560377e-002 -2.2081532463889178e-002
      -4.4611342658360656e-002 4.2520408176353115e-002
      1.8753002160747222e-002 -3.9391346728800833e-002
      3.9079796308721521e-002 1.0891216495649064e-003
      -2.1136919100251752e-002 -5.2356028021612551e-002
      5.2507402048730951e-002 7.9601062165193213e-003
      1.0920855938348054e-001 -2.8902165340175201e-002
      5.9783642856856965e-002 -4.0444717027588346e-002
      -7.4691829183644462e-002 2.4230873721377767e-002
      -2.0952963025423793e-002 9.2173742344118209e-002
      -3.2671955753717547e-003 8.6253755268736135e-003
      -9.9311802403423466e-002 -3.7167558547029130e-003
      2.9966218878420135e-002 -2.0446975666976986e-003
      5.6619432043172196e-004 8.2324154095529001e-003
      2.3761335517451496e-002 -5.6929299238510318e-002
      1.2382235779315946e-003 1.8779849709327039e-002
      2.0642914958468307e-002 8.2780501681378432e-002
      4.9331350110635566e-002 3.5885616718513333e-003
      3.1273444503898969e-002 -3.1296971503883962e-002
      5.4975687668632381e-002 -4.3080940190956526e-002
      6.7024832961049483e-003 8.3619869244301218e-002
      2.7529380877786728e-002 1.7793762998309802e-003
      3.3338807058712491e-002 1.9525224197854869e-002
      2.5861547519559400e-003 3.3748371804396229e-002
      -1.6233691893439098e-002 5.0051450970516531e-003
      3.9146953758240031e-002 -1.7765240357020734e-002
      3.1457615368752738e-002 4.1411395403738839e-003
      4.9934871183775383e-002 5.6378808595568042e-002
      8.6593760643508943e-003 -2.4613211138982179e-002
      1.6435731549687471e-002 -5.5662560774856797e-002
      5.8694481620447859e-002 5.6891724616641867e-002
      2.9876426802154743e-002 1.2045949466515082e-002
      9.2910428129778386e-002 2.6912164017252470e-003
      5.8669166387754740e-002 2.0604321457307274e-002
      2.0396088142198038e-002 8.8904272146628598e-003
      9.8823960527604244e-003 -3.8726649233233504e-002
      -3.5391001195836387e-002 -3.4361560406475387e-002
      -1.2319222192059748e-002 -4.0623304479968529e-002
      -2.0370965998083881e-002 1.3398590115301735e-002
      -1.6201702491638301e-002 -5.1502784233535666e-002
      3.4118669795628373e-002 5.8481662116627907e-003
      3.3647908113750957e-002 1.3375724080565145e-002
      3.9908377959947450e-002 -3.8611071390381974e-002
      8.6596117136192155e-002 -2.8904092499832303e-002
      -1.6379422033246820e-002 2.7122475479824945e-003
      -3.7943233633913921e-003 3.5953337905725996e-002
      -1.3978465190626779e-002 -6.1403874144549042e-003
      1.8085771342310455e-002 7.3531444473375132e-002
      4.3061118290684618e-002 1.6099543910444041e-003
      3.3242824662904936e-002 1.2525673673664595e-003
      -3.5238897241061468e-002 -2.6353855419965204e-002
      1.2888957607190155e-002 3.0333942314343554e-002
      8.5928299143493668e-003 -1.1669405856653697e-002
      -3.8660953028860656e-003 5.2420958558871220e-003
      -1.6590336482117149e-002 6.2903520749287194e-003
      -2.3750436220347771e-002 1.8757097383653068e-002
      2.7050340643794184e-002 -1.4819683676994082e-002
      -3.5723369303060654e-003 -1.2699109537818267e-002
      4.2770520026081671e-002 1.2957120801437209e-002
      1.1204546182310871e-002 7.2812082164478266e-003
      7.4315263580419701e-003 2.2335484252811760e-002
      -4.1618278507888122e-002 1.2177098410147323e-002
      3.5168623937924900e-002 9.0753975698217876e-003
      5.1611089955362961e-002 -5.4477830420795050e-002
      -4.8314475352265060e-002 -1.9071310059453846e-002
      -1.0495397535617842e-002 1.6538043872740327e-002
      -4.5627690176411599e-002 -4.8385924046468881e-002
      2.6156809134807862e-002 2.0622620850733828e-002
      -4.0309840093638125e-002 -3.5453673099791555e-002
      2.3232954625202810e-002 -2.7599265683496202e-002
      6.0342725247088613e-002 7.9858260300221355e-003
      8.9251183474595968e-003 -2.5854470438299429e-002
      -3.6888383256036349e-002 5.5395550784765935e-002
      -1.1625641278563706e-002 7.0558532013983308e-002
      1.3604697401346124e-002 1.0874681415516833e-002
      -5.0164980446865889e-002 5.2658243410987366e-003
      8.0769572670758693e-003 -4.3716649195258465e-002
      3.6208721377350810e-002 -1.2618703404805257e-002
      2.6430898946489402e-002 -1.7985128374223777e-003
      1.4895626916302160e-003 3.1909200640632370e-004
      2.1456239068108889e-002 7.2246037682204195e-002
      3.0810827893823983e-002 -3.8038149948761910e-003
      4.5843762620910729e-002 -3.4712124668642673e-002
      5.0146997697531510e-002 -1.6786346654611171e-002
      -6.7539503963170398e-003 5.3846384257573411e-002
      2.5646792144478250e-002 -2.1769232714989512e-002
      4.7199072099786146e-002 2.1297199652225818e-002
      -6.7128871414603815e-003 -4.2281600147803227e-003
      1.3686585790297379e-002 2.3134546760521794e-002
      4.0992790599540169e-002 -3.1201556543907639e-002
      9.9458339649933208e-003 -7.2231974021226665e-003
      2.7477148546524131e-002 4.8177316791142830e-002
      -1.0233292764070636e-002 -2.5323044438411182e-002
      9.5564920567627627e-003 -3.0045085834739683e-002
      5.4535511773340754e-002 1.7243271705003088e-002
      1.7659177397415324e-002 -7.4343489906402117e-003
      -4.3991575914333746e-002 1.0375831483483908e-002
      1.7852265924719030e-002 -2.0726716013484220e-002
      -2.3482583953962207e-003 -1.8725844564227486e-002
      1.3763880078029280e-002 -1.0864358708933061e-002
      -2.2208826277725253e-002 -1.4244871889416233e-002
      4.7334217472290831e-003 -2.9640885980628820e-002
      -3.8629176267311327e-003 1.8418928143600032e-002
      2.5723424873664524e-002 -2.7426574966391851e-002
      -2.5408065614787298e-002 2.5758467324636884e-002
      3.5229347252718826e-002 8.5635230603179329e-003
      1.4403471329347852e-002 1.3394779803227118e-002
      2.1573755656018885e-002 2.0980404684365996e-002
      1.0733133207844759e-002 -2.4879740615599208e-002
      3.8769386274802959e-003 4.0121904294325344e-003
      2.9085280998903044e-003 -1.0137053659301421e-002
      3.0628765847805283e-002 2.2382241469977221e-002
      -2.2344525503113352e-003 -1.6393949556693134e-002
      1.3097831856406139e-002 -1.8398280444763004e-002
      -1.1240728748919895e-002 1.1530640784494907e-003
      2.0799682233998563e-002 3.5882093050813501e-003
      -1.4443161045830913e-002 2.5485368915455529e-002
      7.8391109786120679e-003 1.9589634820929878e-002
      4.8288773177531177e-003 3.7513389172921063e-003
      -1.5108094676382413e-002 1.1896295538625718e-002
      6.8268021810115320e-003 -1.4193810744067737e-002
      -2.1641627791666850e-002 -8.0178638605335074e-003
      6.4194562648659014e-003 6.4570117625409908e-003
      -1.7160253201612186e-002 -5.9608758901151084e-003
      -1.2977953346170799e-002 2.4005103494308597e-002
      1.2029609358878330e-003 2.8261595865510494e-003
      1.4443203967415868e-002 2.0476059728949905e-002
      -4.0340508844902024e-003 -1.5378944697762482e-002
      -1.1466254739710737e-002 -7.2629572099159991e-003
      1.6947789298176315e-002 2.6920402410314319e-003
      -1.4931289837065955e-002 -9.7449477859802777e-003
      4.0440294811372457e-003 5.7220656993332286e-003
      -1.1599053222697985e-002 -2.3440404074345542e-002
      -5.3496673756128505e-004 -1.0977469686159768e-002
      1.8214698390990210e-002 2.6673121224242459e-002
      -1.4803200514673600e-002 3.9109412113632856e-003
      1.6366034127062026e-002 2.2406323421044136e-002
      -6.9498184671631354e-003 1.3565749916622740e-002
      2.0784305562794030e-002 -1.3337710027167927e-002
      -1.4700908443261053e-002 2.0220800605239900e-002
      -1.4933268279688274e-002 -2.6833635674201349e-002
      1.2351332506768136e-002 -3.3704324753691055e-002
      -1.8063862173115966e-003 2.2878591462388700e-002
      1.2357556217727276e-002 8.8153485591304093e-003
      4.7842628201498976e-004 1.8846320748913539e-002
      1.4022795805761429e-004 -2.0583780564220329e-003
      3.1680467904389498e-002 -1.6238426866847330e-002
      2.0099826272982489e-002 1.7773679528449386e-002
      -2.0712663090027481e-002 4.0665050280206914e-003
      2.3742613627845070e-002 -2.3872522520168714e-002
      2.2674683269936689e-002 1.9724548604500357e-002
      9.7823128331224977e-003 7.9388802794949937e-003
      2.7657576877136013e-002 -3.3905394089212861e-004
      -3.8572498291862519e-003 -1.5070826845615498e-002
      1.5636566500540065e-002 3.0424480658805776e-003
      -1.2818327252636973e-002 1.3111730914347003e-002
      -2.3520722825102279e-002 7.5934185546360717e-003
      -6.1199851399111318e-003 2.8832226426953717e-003
      2.3700573889546682e-002 -8.2775956048954449e-003
      9.8809323481332621e-003 2.2713457009419448e-003
      8.8889423142270260e-002 -8.6700320387377555e-003
      9.1008185605329812e-003 1.1025600503452814e-002
      -9.9038283548721351e-003 3.2747413495104086e-002
      1.9660957597133773e-002 1.3745729768002552e-002
      -1.6670486791139211e-002 -1.3788828049712345e-002
      1.7079365764196087e-002 -2.1729987746169143e-002
      -7.6934400860247621e-003 -8.7324638755366547e-003
      -3.7198721857663514e-002 -1.0689234574469752e-002
      3.2190249906513223e-002 -7.8268409690903165e-003
      2.3065101032743777e-002 1.1002353798395644e-002
      -8.7621842545456425e-003 -4.6832756278234827e-002
      1.0157041330960750e-002 -2.9116552750513027e-002
      -2.2639049658712398e-002 4.6318493221421668e-002
      1.9314503487242164e-002 2.1649356868815573e-002
      -1.7318253924883620e-002 6.5860869826212822e-004
      -1.1010080188357581e-002 2.0946358400130455e-002
      7.5472109590778219e-003 9.0364850059226082e-003
      -1.7074964781327966e-003 1.7426766370701730e-002
      -1.0591472247294958e-002 -2.5453479836249040e-002
      -2.1120423079208438e-002 8.8735719856126776e-004
      -1.8718640394520900e-002 6.9036110193942965e-003
      -1.5242606028283793e-002 -2.4951617250125427e-003
      -2.8765850985585078e-002 1.9594016053584191e-002
      -1.6527071685606364e-002 -5.9055250863561228e-003
      1.3080636316042194e-002 -5.2651114228647773e-003
      -5.6901972179416779e-003 -1.1157146692018949e-002
      2.0507137467426908e-002 1.5545737791326038e-002
      -1.3730590252802693e-002 2.0909496640725334e-002
      1.4696144761287855e-002 1.0320356548807591e-002
      -1.7527925843207608e-002 -3.2055109543927605e-003
      -7.9420134457120622e-004 -2.3519566005449365e-002
      9.5816971533073635e-003 -2.1931182787553440e-002
      -2.2747390073153132e-002 -1.4796666562238860e-002
      -1.6149743951036580e-002 1.4786755854656077e-002
      -9.3160648989722514e-003 -1.3490625712445508e-002
      -1.0578808620678917e-002 3.6924115682626774e-003
      8.8251278047737879e-003 -1.7705667830000313e-002
      2.7736136929664239e-002 1.1653989216113938e-002
      2.2580669009091656e-002 -1.3096265944665222e-002
      3.7798476447763077e-003 -2.9299864447847969e-002
      -4.3128824807034179e-002 2.9520002493113626e-002
      -2.6394964901340294e-002 4.0059415642684872e-002
      -2.5142354827992396e-002 -3.0299391810745750e-002
      -8.2242376112797149e-003 -1.9196928927941164e-005
      1.3939357654140063e-002 1.1219111908718752e-002
      -1.7607203327428815e-002 6.0092098727001957e-003
      1.5205673241329442e-002 -2.0521732842641454e-002
      2.4357396620891120e-002 3.0002263102062981e-002
      -4.2357557952131869e-003 3.5333105359141213e-002
      1.6625889577096167e-002 1.0430928782995787e-002
      -1.7667386587095841e-002 -2.3129504061392293e-003
      5.2453148692619016e-002 -2.7048606614535703e-002
      -1.1933983869504276e-002 1.5334248524056873e-002
      1.8685039800611324e-003 8.6892081994334926e-003
      1.5347421593477786e-002 -2.6044077357528610e-003
      -2.5973430798147679e-002 2.3033487389811740e-002
      -1.7000327976722876e-003 -1.8429948697568411e-002
      9.5611321439601459e-003 -2.4097773531743114e-002
      4.8733626466682042e-003 -1.1037297655665154e-002
      4.0004046003919913e-003 1.2183938943830378e-002
      -5.1317270407391603e-003 -3.9537435903826836e-002
      1.2459501279858971e-002 -1.6339599076443816e-002
      1.4771017767113684e-002 2.0036076485773199e-002
      2.1691540685583603e-002 1.9124030539448948e-003
      -8.2431721713457307e-002 -6.4326357132766252e-003
      2.4451450516189903e-002 2.4179045536915300e-004
      -2.8804982736741421e-002 -6.8904191531495270e-003
      5.5949498988225654e-002 -4.4888444373126911e-002
      -1.1264897920917564e-002 -4.3253803563255214e-002
      -1.7264610648779529e-003 -2.6457416693692639e-002
      3.0941852807029817e-002 -3.0529236542963568e-002
      -2.0458869138981955e-002 1.1491993708462321e-002
      2.0497283443695561e-002 -1.1339134948035984e-002
      -3.2839637447948274e-002 3.1344190834198336e-002
      9.0571826634401574e-003 3.8757807388993537e-002
      4.8498193845542277e-002 -1.8425892164118357e-002
      -3.4032962503454715e-002 -9.9626255479925499e-003
      -8.0331075522854616e-003 7.5396394005635753e-003
      -6.2567082907128511e-003 -1.7903346214053900e-002
      -1.5003046614571516e-002 -1.3830120633403916e-002
      2.3014643126183319e-002 -1.5303419673537494e-002
      1.4121089458179931e-002 3.0885792375355036e-003
      -4.4272655522045179e-002 -5.2722203034918487e-002
      -4.7748261765858009e-003 -7.4097331874386002e-003
      1.7696416457591877e-002 4.6025650879910410e-002
      1.6789263030158583e-002 2.3180073504159893e-002
      -2.2018559412769912e-002 -2.2380697647136909e-003
      -5.9886522821151313e-003 -1.3815217510565064e-002
      -7.8597544137415844e-003 8.2946531561324637e-003
      2.5436998413137828e-002 3.2094172502892274e-002
      2.6411298382340027e-002 -1.7187756722985867e-003
      5.2155317043383331e-002 1.7637169056342245e-002
      1.3750561314125458e-002 1.1891197308445463e-002
      -1.1608940868242022e-002 1.2098046252110212e-002
      9.5765463907846338e-003 3.9363243381448580e-002
      2.2653779979726694e-002 1.4636975553992791e-002
      -3.3922534719567965e-002 -1.7648354726918454e-002
      -4.3959656110298194e-002 2.7133606737040069e-002
      -5.6056473563746725e-002 4.8754223662992195e-002
      2.8388007318990400e-002 -3.2049172264618363e-002
      -2.8532757019645409e-002 -6.1451992647486665e-002
      2.8877277388716528e-002 -2.2539454750779692e-002
      4.6296629594693411e-002 -1.3447969493359743e-002
      -3.0803680299788975e-002 1.7487634316805809e-002
      7.1930845360329019e-003 6.9398463617338313e-002
      6.8873015758892462e-003 2.9999835368035622e-002
      4.4452492304111971e-003 5.2650181482113242e-002
      -4.9816579241229911e-002 2.0049314477433598e-002
      2.1343116996844240e-003 -2.3992718764873949e-002
      3.7078146994560232e-002 -2.1962313688322448e-002
      1.4235555373150313e-002 -1.0726722485761040e-002
      4.6200979155580781e-002 6.8263764422104439e-003
      3.8496344108810400e-002 2.8044984719355154e-002
      -4.8279168666211869e-003 5.2837579979989968e-003
      -2.8092863155527530e-003 -4.6134375776515926e-002
      -6.4418387790376494e-002 -6.0059401687740516e-003
      -2.4246835369013012e-002 -1.0855974332601099e-002
      2.2652538080379429e-002 -4.4086749655451486e-002
      1.1156274421718022e-002 7.3774769727486490e-003
      -3.0787230644659516e-002 1.5469521879630831e-003
      4.6614513499341849e-002 -3.2194151645705917e-002
      2.8190681853514214e-003 -2.6593145332346229e-002
      2.9248862218658744e-002 -2.3108955457213420e-002
      1.7512071953807985e-002 3.5250401346151289e-002
      -7.6769943963636775e-003 4.4918490782744673e-002
      -1.7912785649378267e-002 3.3301933252115803e-003
      -1.4641853331771317e-002 -2.6525539596888043e-003
      -2.3866315758238020e-002 -3.0219599770299643e-002
      1.6804421028312123e-002 1.8419406831579662e-002
      3.0949461843479419e-002 1.0161216777715507e-002
      -2.8709282066877818e-002 9.1294111767312412e-003
      1.4737686399644311e-002 -1.7475430816094383e-002
      -2.1591702294858219e-002 -2.3348501267950243e-002
      1.0387482867796324e-002 -1.2313327732642274e-002
      8.0561484878562805e-003 -4.6458159530934299e-003
      4.8610551738112419e-003 -9.2743769535151305e-003
      3.2361977444055625e-003 -1.0466106730291122e-002
      1.3329700699144919e-002 4.9314377153080076e-003
      -5.6256008507991158e-005 1.2238298416573765e-003
      6.0992640527961182e-003 -9.8519785457733024e-003
      -3.3698720300839530e-003 -1.4718155309655443e-003
      -6.5364582473025771e-003 2.1208632004194854e-002
      1.4465139871287287e-002 -3.5662046521062335e-003
      8.9510879069721067e-003 1.9252849719841949e-003
      5.3117158630329245e-003 -3.6741191858475097e-003
      3.0065350261381778e-002 -3.5605533176340354e-002
      -1.7932641281264792e-003 -2.3089532302522389e-002
      -1.5256417474604845e-002 2.5368866700065648e-002
      4.9323691421708045e-003 -7.8610377516730844e-003
      2.1038528905993868e-002 1.4277893892704597e-003
      1.3084738995213129e-002 -6.4317817464650470e-003
      -9.3561583280294854e-003 1.0451939482052083e-002
      8.8561537863787176e-003 1.8862704697972289e-002
      -1.3641566772064177e-003 -8.9411972595473000e-003
      2.1747049825412069e-002 1.7573862138007896e-002
      -4.8107373882275489e-003 2.3304535245358089e-002
      1.3784284497056510e-002 9.6740205053161641e-003
      -1.6040988940403206e-002 4.5595652353715961e-003
      1.1721109476970980e-002 -9.1087448930980558e-003
      1.1071933742846164e-002 -9.5574661153686614e-003
      -2.3734571397695890e-002 5.7518550835860575e-003
      3.2086352332495586e-003 -9.6469881827990107e-003
      7.7116139450314185e-003 2.1763592429117525e-002
      9.2886972164605321e-003 -1.8689235030759997e-002
      -1.0368998237450791e-003 -3.0904203780377712e-002
      2.4953173997476711e-002 1.2053987099645327e-002
      2.1336377634210865e-002 1.6914735249509039e-003
      7.9019186379899534e-003 6.7182448144932037e-003
      -5.1619026436082660e-003 2.4744493415140605e-002
      2.0465270170326212e-002 3.6001008847137889e-002
      -1.1025036854392292e-002 -4.9107223254123249e-003
      -2.5118600341949290e-002 4.4326592740209715e-004
      2.0915286720044085e-002 -1.8985547059796028e-002
      3.2662246113702603e-003 -2.1840213205782430e-002
      -1.2267462749845071e-002 -1.0805320737104364e-002
      5.5297821816910038e-003 -1.3006973933374154e-002
      2.2616915939667113e-002 1.4180065180938881e-002
      2.2343201291898995e-002 3.8997125685511494e-003
      -2.0680728851019273e-003 -1.6086185095564053e-002
      -2.3100570916628600e-002 5.5401110159914611e-003
      3.1959963600748861e-003 -4.8956367295118052e-003
      8.4668964434633422e-003 -3.8613865274997040e-004
      2.4116223525164921e-002 2.9278744601537680e-002
      -4.7952221644957070e-003 3.5158578577489271e-004
      -5.8818282072715068e-003 7.6637605333586684e-003
      1.3973807234429319e-002 -2.3215105556017549e-003
      1.7449759374606372e-002 2.2116372140605071e-002
      2.3117320132424058e-002 1.2872624307052027e-002
      -5.9185505607281296e-003 1.9101942800609856e-002
      -5.7431136251787423e-003 -2.5631464219373335e-002
      -1.1620499020299822e-004 9.3813733543830803e-003
      -1.2869428778293980e-002 1.4739517867017807e-002
      3.6129257891415904e-002 2.5918787254155914e-002
      1.5674036218113651e-002 7.7466085115787512e-004
      1.1415394621385142e-002 1.7077032513763503e-002
      -3.2999567191286369e-002 -8.8176066677627413e-003
      -4.6457499434916456e-002 -1.5781362485573817e-002
      -3.7548401577345535e-002 -8.6496801814118403e-003
      2.6470661944101762e-002 -1.3279452645700525e-002
      -6.8924504201849073e-003 -1.4781846119065660e-002
      -4.2761205632586597e-004 -1.8313643616495484e-002
      -3.0241401092404599e-002 -3.7730572069524268e-003
      -7.4919803204372077e-003 2.0308016412769778e-002
      1.8809652965627338e-002 4.0226987663756365e-003
      -1.7596448430954044e-002 -3.6371542682344452e-002
      -1.6655111332601415e-002 1.2897476765949813e-004
      2.9805892517879844e-002 -2.0491896024076101e-002
      -1.7517390270263458e-002 -9.3280390346912097e-003
      -1.1373394911342193e-002 -1.4385971425852158e-002
      4.5352071701560076e-003 -1.2746057043486098e-002
      2.0863909177478348e-002 -1.3691952121385688e-002
      -3.4241532976967304e-002 -1.9981969922001921e-002
      -2.8187913407327795e-002 -3.6422941976047639e-002
      2.5119064659943367e-002 -3.6288366117420206e-003
      -1.4106977038195903e-002 -2.3723911949177626e-002
      -1.5920147422611329e-003 7.3252385184847946e-003
      1.1207305343692960e-002 -1.3692002722524609e-003
      -1.1490870123754184e-002 6.8222032135134194e-003
      3.0555756609386104e-002 -2.1770237773630064e-002
      3.2850610960846190e-002 -1.6938530907560194e-002
      -1.2877486162345120e-002 -1.6005309837701764e-002
      5.0320095349897830e-003 -2.7181501712875193e-002
      1.9801834452961742e-002 2.0042103087585510e-003
      -1.9056892985633622e-002 1.3798896155116180e-002
      -1.2054453882445795e-002 -2.2367351140264273e-002
      -2.0768639447923835e-002 3.0950662456789339e-002
      2.8414350232438917e-002 1.2282345957738872e-003
      4.5700984577473737e-003 -1.2472382266166024e-002
      -1.5994335306556157e-002 5.8594225658462865e-004
      2.9898087944340436e-002 1.7992243037254885e-002
      4.0193490191688754e-002 6.3930896522269524e-003
      1.6755633278681726e-002 3.0769045303479434e-002
      1.6631790292946834e-002 -2.8804472814548922e-002
      2.8003933436661153e-002 -1.0293088345867910e-002
      1.2196465869256858e-002 3.1513069769744363e-002
      -2.5859651339432473e-002 1.1420394343129936e-002
      -9.1940928773462782e-003 3.8507328675598897e-002
      1.3120728225022148e-002 7.0962741852914244e-004
      5.1944151548040949e-003 -1.9695582912291225e-002
      -7.6746838317533162e-003 -1.8472702233177909e-003
      -1.5630404961400401e-002 5.2545330256951088e-003
      1.2174474138735264e-002 1.3157279703102649e-003
      3.4342507104081460e-002 -2.7384689668543887e-002
      -2.8847027588405148e-002 -8.7108739659710107e-003
      2.4950639380807417e-002 -4.4526908752199508e-003
      6.3226592430966908e-003 -1.2893554768280519e-002
      1.2279376372275112e-002 2.8322936476911146e-002
      1.8805096866259551e-002 3.6799660868599190e-002
      -2.4413249560939303e-002 5.4947643327811187e-003
      -3.4170159732714264e-003 -6.6206558235889080e-004
      -7.2649708183162420e-003 2.1896735587408171e-003
      -1.3470498684774216e-002 2.6707655789143192e-002
      2.1948273310728364e-002 4.2147575760025785e-003
      6.2103729803546833e-003 -4.6368313092802704e-002
      3.9348388951360351e-003 3.4848385154711774e-002
      -1.9477652151672471e-002 2.2013980122702149e-002
      1.3607464498319388e-001 3.8453545829462830e-002
      6.6715095107456645e-003 2.2159013190153599e-002
      8.0233086435742510e-003 2.6381114521152819e-002
      -3.5646145304543290e-002 -7.7238012553964668e-003
      -3.3525253504686728e-002 -1.3931771434269092e-002
      -4.3687726891509106e-002 2.0017436428299432e-003
      2.1282251520630686e-002 -2.8902990538129569e-002
      -5.7640481852651373e-002 -1.6096774068056961e-002
      1.9836544435358618e-002 -3.0873426690300972e-002
      -2.2080120331377018e-002 2.9871244295043595e-003
      -1.7725301659279418e-003 -4.9013953447331185e-002
      1.5815031353705666e-002 7.0083904532606163e-003
      -4.6532421641893383e-002 1.2302378150876560e-002
      2.7115996227933627e-002 2.2587476820909589e-002
      1.7401095567602116e-002 7.5232814269997365e-003
      -3.8521434865668905e-002 2.3287624189940955e-002
      2.5392721229458521e-004 6.5742710850971459e-003
      -4.9943170064519447e-003 -6.1240831220119949e-003
      1.6107741331816850e-002 -2.3078140723990746e-002
      -3.4192249579526192e-002 -1.4159821286253767e-002
      -5.2739606735401458e-003 -4.3965130431533390e-002
      -2.3225915308392912e-002 -3.1914785258967571e-002
      1.9375087646805031e-003 2.0146008415470547e-002
      -1.9723189270153551e-002 -1.2708705497416683e-002
      5.3208576597923319e-003 7.9281721015818027e-003
      1.3842577637028484e-003 -6.0827589252157137e-003
      1.8666548230095489e-002 -2.1839327686770816e-002
      1.6756065518007128e-003 -2.3597073111135014e-002
      2.0943288506760770e-002 -9.5648763546161003e-003
      -2.7058648540536401e-002 -3.1808596509837479e-002
      2.6813504398373170e-002 -3.2873539213643423e-002
      -1.0224280590146692e-003 -1.0718998092457232e-002
      -3.8433881547253787e-002 -1.0142662385707822e-002
      -7.2719508742495904e-003 2.4625027891167602e-002
      4.9160039562892444e-002 -4.3714069401428442e-003
      1.8664886133903550e-002 -7.8859662763861010e-003
      2.7834700655644969e-002 1.0500436540129250e-002
      1.5890402322924449e-002 2.3977769288340917e-002
      6.1517531829427874e-002 -1.2001979184966111e-002
      3.8171643803209060e-002 -2.1788443543234132e-002
      -3.6525666764613898e-002 -3.9855446977059991e-002
      6.7429054226901420e-003 2.2076474345624379e-002
      1.0424773768309516e-003 4.4876088820878783e-002
      -5.3737944439724190e-002 9.1816897822180887e-003
      3.0345200794221344e-002 4.0824374534156001e-002
      -1.3959999363703271e-002 1.3167768256525223e-002
      -1.6008473853393552e-002 -2.8408897882606775e-002
      -1.1326094669885723e-002 6.5089420279473330e-003
      -1.4438201058811523e-002 1.8183765585037606e-002
      1.1619083388449690e-002 -8.2670812504898224e-003
      1.7228286258616946e-002 -1.4376587339187528e-002
      1.2300353365722680e-002 -4.6256084814278606e-002
      2.6162537479666521e-002 4.3342411721868625e-002
      8.2290714489822690e-003 1.8321025955311349e-002
      1.7961549377905332e-002 6.3733401501959953e-003
      5.6811976115934641e-003 4.5023220478150709e-002
      -3.7667765555470065e-002 1.3056866078577180e-002
      2.2988499300711962e-003 -2.3106522539102260e-002
      -1.5343556446666420e-002 1.6409298609972020e-002
      2.8753392736967382e-002 6.8468549555303168e-002
      4.1832300134916026e-002 -2.8147657021715643e-002
      1.7023729468269026e-002 -2.8961102683601386e-002
      1.8150958987614083e-002 7.3184267800150776e-002
      1.5967725422681253e-002 3.2485180815489664e-002
      1.4872121268590149e-001 4.0322507995740754e-002
      2.9192605107104794e-002 3.6639426652370036e-002
      2.5704773895866007e-005 3.0983252592821173e-002
      -5.7097988368506443e-002 6.0277065708015300e-003
      -6.1375902645448462e-002 -6.8753243422282158e-003
      -3.7041545453412698e-002 -5.2765261242703034e-003
      2.3447556259070131e-002 -3.4203551644305184e-002
      -3.7530442803233782e-002 -3.5166606588855946e-002
      1.0936766898542311e-002 -2.3432442796166533e-002
      -2.0312890365623174e-002 1.9999880956244373e-002
      -1.3589923449772867e-002 -3.9702001479969454e-002
      3.2013495284553835e-002 6.1051257595546365e-003
      -3.5810202587813394e-002 1.8159825746810233e-002
      -2.3291437237257938e-003 2.1518326603378483e-002
      1.5625845550913141e-002 -1.5214245794706455e-002
      -3.2853884053412247e-002 1.7068256072426371e-002
      -2.5585810980073648e-002 -1.6688025376849200e-002
      4.8507825610992318e-003 3.2839956886487553e-003
      2.8392658433182654e-002 3.6277665997416872e-004
      -3.6859919892850770e-002 -1.3221925687312115e-003
      -7.5396184537143600e-003 -4.1155733547828692e-002
      8.1091993007735130e-003 -2.7493494414685203e-002
      -1.7268732648255222e-002 1.6095005515723529e-002
      -1.4771501272911108e-003 -1.7630570442627246e-002
      3.6646406170979709e-002 6.5105765458209246e-003
      3.8101845196563335e-003 9.5315118616534926e-004
      3.1715417931374279e-002 -1.9090104593874349e-002
      1.9036085786940899e-002 -1.5422373675430603e-002
      1.0601316982091390e-002 -3.8516454654649000e-002
      -1.3825824633673586e-002 -2.3309956736129480e-002
      1.6955008767996615e-002 -3.7510637619524861e-002
      -1.1819915104577061e-002 -6.3301670121030402e-003
      -3.6465837860670418e-002 -1.2038065026714333e-002
      -3.5264950160106834e-002 1.0775454925659541e-002
      1.9208262862463795e-002 -3.8245501126416032e-002
      -2.7381415281786557e-003 6.7999063514877665e-003
      1.5472322465827274e-002 1.5049950492166794e-004
      2.1424567256990639e-002 1.8370157405565253e-002
      4.6395374724010459e-002 -3.5830569245976860e-003
      2.4698417640760743e-002 -9.7449841936596976e-003
      -3.2465932762484107e-002 -2.6769260507119121e-002
      1.7501348029577694e-002 1.2485841959083949e-002
      -1.7223592992602177e-002 3.4588550200931809e-002
      -5.6581991763920376e-002 -1.8635544093317146e-002
      1.7889368474653729e-002 1.8164345303812283e-002
      1.2012452856621218e-002 3.7950218672842505e-002
      1.0698533903840993e-002 -4.3147392941822828e-002
      -3.6310097987446895e-002 2.2316270887396274e-002
      -1.5302020925333904e-002 3.4120310809342316e-002
      1.2436556537465721e-002 -1.0820959956374342e-002
      1.2463285067931132e-002 5.7207811146752950e-004
      3.5205165845494338e-002 -5.0104199810395954e-002
      2.6785422467738972e-002 4.0699848320918025e-002
      6.4684620674698261e-003 1.9425214219925876e-002
      1.1368304662272585e-002 -4.7515272937569417e-003
      2.8242651452892637e-002 3.9609035102161509e-002
      -2.9236913295129553e-002 1.0514169074156031e-002
      9.6737484736975372e-003 -5.5153283378259702e-003
      -7.2812970780339707e-003 -1.8341412387321984e-003
      1.1157397300557936e-002 6.1717403381106574e-002
      1.5150055918113726e-002 -9.7835931710855504e-003
      3.1757437607090738e-002 -3.9131948860571503e-002
      2.5066550181897167e-002 7.2950020730322987e-002
      -1.5696284487286415e-004 2.1588917654169440e-002
      1.2612606209421765e-002 1.3872707851097033e-002
      5.6159526179426641e-002 2.6545750156441547e-002
      -4.9766114609248206e-003 3.7931091360015370e-004
      -7.2342906010537137e-003 -3.5625181912612394e-002
      -4.5368204750365203e-002 -3.2368169546998365e-002
      -9.7415149232475094e-003 -1.8929704964001419e-002
      1.0948567023852170e-003 -6.9636647064077236e-003
      -3.4246531249445801e-004 -3.5526650874675362e-003
      -1.2062571771277043e-002 -1.2797044216336716e-002
      -7.9491633168164277e-003 6.2280322589501084e-003
      2.4837186584100165e-002 9.7326554277715974e-003
      6.8525440532945903e-002 -5.6864168924891890e-003
      -2.0066076610900752e-002 -3.6525709271232464e-002
      -8.7195542525824420e-004 4.9881794722037983e-003
      2.9785026364562563e-002 -2.5343312006030041e-002
      1.8978047043319204e-002 3.1264981637593538e-002
      1.3136065025272023e-002 -1.7067792466744214e-002
      -4.6041599238439441e-003 -1.1539862502641151e-002
      1.6988025555901263e-003 -1.1430951664965905e-002
      -2.4070883041958705e-002 -6.0360020844008261e-003
      -2.8048850647116590e-002 -1.8284431538015022e-002
      1.9192345637490643e-002 -9.8063272894109901e-003
      -1.6945711848764117e-003 -2.6060737217756702e-002
      -2.2378290357486848e-002 6.2613226861107955e-003
      2.5828634188416653e-003 1.1871457759666538e-002
      -1.6540879073251163e-002 2.4220922081911310e-002
      2.8488351688165648e-002 8.4331293545779930e-003
      1.1059682014801613e-002 7.3444582496319218e-003
      1.4614197164719806e-002 -1.4660454809410304e-002
      -1.0484602422886692e-002 1.2348968296420652e-003
      6.0209023186914411e-003 4.2875027290934257e-003
      -1.9262684149939053e-002 -7.3885399522159864e-005
      -3.3432196783837700e-002 -6.9136412049954719e-003
      -5.4023624479635109e-003 1.2571674317719004e-002
      1.8406971545275007e-002 1.7428272862571259e-002
      4.1310152555897449e-002 -1.4506543046327803e-002
      -2.4419365645654435e-002 -2.1946496019717047e-002
      2.1121297071571697e-002 1.1323388550796547e-002
      6.4070242645046016e-002 3.0906284098210822e-003
      1.8381487057234074e-003 3.5289569257685130e-002
      -1.0498441403868526e-002 1.5879955249738741e-002
      3.7440236401298302e-002 2.9013967352270478e-002
      6.3235612842479187e-003 3.4390874203441064e-002
      -5.5702674627228728e-002 1.6544121313880084e-003
      -8.7083272704617919e-003 -5.7261108320558292e-003
      2.0783372602304794e-002 -3.7983382423565665e-002
      4.6236587475092681e-003 -8.3379354829516764e-003
      -1.6618708179404452e-002 -1.1330063154152237e-002
      2.1837020199723966e-003 5.9416955763586791e-002
      3.4597431582451522e-002 1.7097887397514069e-002
      2.7438069882233868e-002 -4.2510215366090093e-002
      -2.2370154652713234e-002 -2.5355369656727873e-002
      2.6700499656049002e-002 1.8826575634773371e-002
      3.2295868216357597e-002 -2.2350728283637378e-002
      1.4383854213454162e-002 3.2062657096777789e-002
      2.1992319260724778e-002 1.2457900159886412e-002
      -1.2493420593434459e-002 1.2139070903398282e-002
      1.0288275351520462e-002 -8.3902050672641296e-003
      -9.4856621264763387e-003 -1.2188968582139246e-002
      1.0548145072233530e-002 3.4640206991629882e-002
      2.1951232074544228e-003 1.3026585881098290e-002
      2.3321599316104238e-002 -4.2026853795018554e-002
      1.3012473573960341e-002 2.2079681549449334e-002
      -3.4712338650247990e-003 2.1360547368891564e-002
      -1.2009773760213258e-001 -1.9954234029832857e-003
      -1.2416146970344162e-002 -2.7782398906587645e-002
      -3.4124893129622476e-003 -1.6404199056668522e-002
      3.1069735724282382e-002 -1.2367844601178155e-002
      5.8502586332015152e-003 7.1995333118083328e-003
      -2.0281541598917284e-002 -2.1076021624233661e-003
      3.2271081968822547e-003 3.0710573270029160e-002
      2.8165196911069331e-002 1.9231878319832245e-002
      -2.8721690778077409e-002 -2.4283452917333165e-003
      -1.2517714628060806e-002 -1.0602177433030331e-003
      2.3631392191135326e-005 4.3127940886026145e-002
      -6.1254719082503850e-003 2.4968015704421274e-002
      -7.2185803912986962e-003 -5.4979556399427469e-002
      -2.5107055894015736e-002 -2.0068986454171250e-002
      2.9833271097102747e-002 -4.5035047418729790e-003
      2.5991296623780569e-002 -1.6002545933935592e-002
      -7.5448865140089203e-003 -6.7208798858735897e-003
      -1.8905996803416512e-002 -7.5048849985665756e-003
      1.6531882191155846e-002 5.1358456723422929e-003
      8.2170816732174672e-003 4.4603705358367777e-003
      -4.7210164346084384e-003 8.7664079373236115e-003
      3.6171953456770718e-002 2.7310510021743093e-002
      -1.2039066677807905e-003 -5.6434256483369971e-002
      -5.6719443182545667e-003 1.0735450033705046e-002
      -2.9690929670918607e-002 1.4927702653124278e-002
      -6.4596794509489694e-003 5.1040701320343267e-002
      -8.7128011518849166e-004 -2.2116699159735125e-002
      5.8384629132753173e-003 7.6365757589616483e-003
      1.5975178317393184e-004 -1.8631192628283142e-002
      2.6135109958472565e-002 7.0906881017802730e-003
      -2.2783072230700797e-002 2.5721168252334319e-002
      -4.0188341138843030e-002 1.8522035353085591e-002
      6.0059075028193847e-003 -4.9682576754379220e-003
      -9.6793937591205977e-003 -1.3515647509299896e-003
      -1.0940073125599060e-002 1.5201697233293296e-002
      2.5809448018158262e-002 -4.8375125355050640e-002
      -2.8334730944057241e-002 -2.7271947108549188e-003
      8.4877202132565557e-004 1.6631233573781913e-002
      -3.0121180248715837e-002 3.6361647009730720e-002
      -1.6315447170572098e-002 4.6489854860377926e-002
      5.3017619360329962e-002 1.8637270709892306e-002
      4.1884922550946085e-002 -1.2621357686059348e-002
      3.1401642080017361e-002 2.0165697081731396e-002
      1.1383284023950781e-003 2.5975679078952724e-002
      -1.6784715957539914e-002 3.8569251018309813e-003
      3.5682314417697938e-002 -3.9590888983441132e-002
      -7.2129408353028947e-003 2.5033466103043456e-002
      -1.6308479635068613e-002 -6.7674822746662351e-003
      -2.6773704004091126e-002 -1.0877932014964467e-002
      -6.1665894319323754e-003 7.4876598284680526e-003
      3.2496121981637455e-002 -3.1207281108713396e-002
      -4.8533799522814933e-002 1.1481397011463031e-002
      9.1646220116497583e-003 -2.4462488482566245e-002
      2.2648960965183221e-002 -3.4547014314242550e-002
      -1.2987153587439080e-002 1.1239152506482854e-002
      3.3942958328513559e-002 -1.4510511555738079e-002
      2.6120441296100961e-002 6.6710338903192314e-003
      6.8440030487883037e-003 -1.5275839952556178e-003
      -1.5919329876393870e-002 -2.4264291333404402e-002
      -3.8773596220650162e-003 -2.1188718885596498e-002
      -2.6810187741598501e-002 2.7949745667252789e-002
      -1.1046553203379474e-002 -1.6448762219145204e-002
      -7.3379284733775842e-003 -3.1333036956443329e-002
      -3.1790733666681913e-002 -8.1580297757381879e-003
      -5.7371994443800672e-002 -5.0948872467562370e-002
      1.9975460273773258e-002 2.2167629413698052e-003
      -1.3390891930222325e-002 -1.1178559655880650e-002
      8.7515232605726703e-002 2.8193344271682037e-002
      6.3381137876422730e-002 -2.8004855909917262e-002
      4.2100341511605674e-002 -2.3416104327542955e-002
      -2.3786347701852388e-002 2.8459012542493252e-004
      -1.8312780450153020e-002 -9.7881182769301994e-003
      2.9394696649675704e-002 3.5573101271526887e-002
      3.5560464531057892e-002 7.4572329950782380e-003
      -4.8812968022061776e-003 -2.1304882752342255e-002
      1.7685959941253021e-002 -4.2533220528553836e-002
      3.8638224306727760e-002 8.0062786785118745e-002
      1.8416697015580848e-002 -1.8364383690172091e-002
      -7.4455851035906254e-002 2.7377299210982288e-002
      -6.2678330494931279e-003 -1.9538214638282671e-003
      3.3576181827394483e-002 2.7014137301862327e-002
      7.1863625312285550e-003 3.5602985134249240e-002
      -6.8843063271528934e-002 -1.2892974974155962e-002
      2.8327998032701848e-002 1.7031269650741074e-002
      2.0552232479094573e-002 5.5303763454465728e-002
      -3.9820307895048472e-002 9.3763631428657179e-003
      -3.3461629757443483e-002 4.3475162484030112e-002
      2.1454339897765567e-003 1.9079730577982384e-002
      1.1078812363630956e-002 -3.6977846240626389e-002
      2.2061294957523504e-003 -4.0797092955390558e-002
      -1.7799181201954822e-002 3.1067979478612305e-002
      -3.8833159100696499e-002 3.2851322531162491e-002
      6.9931276427806391e-004 6.4633135258603217e-002
      -1.6310251900895592e-002 5.2400557558329161e-002
      -1.6765223060750015e-002 3.3968833771062995e-002
      6.3771504435878035e-002 -4.5858081832882161e-002
      -3.3447958717859071e-002 -1.6235706106920708e-004
      -1.2917506389675499e-002 -2.8134782729413508e-003
      -9.0586153043078127e-002 -2.3770988891521412e-002
      -1.0508338961324073e-002 3.0696641375363425e-002
      -2.3770369620532219e-002 -6.2384286922746203e-002
      -1.2288163532540667e-002 -3.0567906162072445e-002
      -2.4613889878617273e-002 -2.2306785499869166e-002
      -2.6219038223258679e-002 -5.1427345615363641e-002
      -2.7902271337639225e-002 9.9028453558393750e-002
      -8.0148379580236601e-002 4.4910738058081080e-002
      -5.6647687784780101e-003 -5.8413290125836022e-002
      4.8949918885604495e-002 3.7695993656407826e-003
      9.8790574872063882e-003 -6.3025403070885250e-002
      -1.9911788387925886e-002 2.5227335993944500e-003
      1.5770154917212263e-002 7.6228278424307291e-004
      4.4049175442740056e-002 1.2648085675351245e-002
      7.7189694816420629e-002 3.0189206653196327e-002
      -1.6695239911652157e-002 1.0764154584714723e-002
      -5.3125528527129158e-002 3.3648432596213591e-002
      6.8387168768770670e-002 1.9408381929882826e-002
      -6.1485069902159142e-002 1.0639348206075115e-002
      -1.3112497925754814e-003 -2.7626868009847795e-002
      6.5275020590364113e-003 -4.4555365062720016e-002
      -5.2930713479173989e-002 -2.4934947866661492e-002
      5.7994561001343869e-002 -2.7439250149918742e-002
      -1.9725930861082198e-002 -1.9900013239483406e-002
      5.6692309442563447e-002 -1.3350007452782336e-002
      2.8976877830685249e-003 -1.5935608477287037e-002
      -1.1663108220164430e-002 -1.8554330389600481e-002
      -2.2935643389662096e-002 6.7749774873362395e-002
      -1.5392215342041582e-004 -3.1450502813068423e-002
      3.3777128634975645e-002 -2.4425455705135032e-002
      3.3805708204009702e-002 -3.0043672012114549e-002
      4.2758005996099240e-002 2.8249264841045077e-002
      -2.1717849735941389e-002 1.5094281364209006e-002
      6.0034715492201997e-002 3.2183845127243351e-003
      2.7130369418387333e-002 -5.6383036619403151e-002
      4.6758438433125528e-002 -6.9327092705440518e-002
      -3.1337211210680282e-002 -1.2754892907686867e-002
      -2.3202629637565694e-002 -5.1486780619920828e-003
      3.8566486673449245e-002 4.2936493969333814e-002
      4.1920604735928055e-002 3.1741960117163626e-002
      2.7798326547672135e-002 -4.3695468998470523e-002
      6.8004508494356505e-002 -3.6937619154244164e-002
      2.6949985244379037e-002 6.5292875258992453e-002
      3.1674065231063579e-002 -6.3848655493566895e-003
      -7.6204845601892113e-002 1.2428509840892697e-003
      2.0009767804751590e-002 3.1894500869061856e-002
      3.9089804306603380e-002 1.7310173425895931e-002
      1.4365174784263867e-002 1.4218270279638911e-002
      -6.2008533825339447e-002 -4.3072273716056757e-002
      4.4650519239620663e-002 1.2288310074045376e-002
      1.4892354975952401e-002 3.7084674247684794e-002
      -1.2515114476167041e-002 3.8222857132033800e-002
      -5.9671305591618803e-002 4.0633637215002419e-002
      1.1581198449961161e-002 3.0156053736341429e-003
      2.3657557251743833e-002 -4.2933572246311870e-002
      -2.5216087352325056e-002 -1.8953671689729234e-002
      3.0026073520529901e-002 1.2489717464306509e-002
      -3.4913182887947904e-002 4.1427115071194495e-002
      -1.8989520772769025e-002 7.5906916077023087e-002
      -6.6730656000358879e-002 5.9857746701016963e-002
      1.0284471972485651e-002 2.3165836333373945e-002
      8.3087612383510076e-002 -4.6810744901966586e-002
      -4.8436749230776122e-002 -2.5746951963581701e-002
      -9.6545319439000164e-003 2.3153085074514041e-002
      -7.5658350195508942e-002 -4.9322443727000974e-002
      4.9006961511228260e-004 3.4978917749241625e-002
      -5.5149445739533245e-002 -6.8631469211987650e-002
      1.5905535832672450e-002 -5.0312256406263960e-002
      3.2440531504462876e-002 -2.2286837125076061e-002
      8.3632696990907310e-003 -6.4095839596522944e-002
      -6.8004206349066815e-002 1.1925622123555064e-001
      -7.9697605245339087e-002 6.9333028828374471e-002
      4.0279773177819304e-003 -6.0889443387523667e-002
      -1.8484341901116856e-002 -1.3539373218820721e-002
      2.0649201774190332e-002 -7.9306424059743211e-002
      2.7656655070959477e-002 -9.9500014891745602e-003
      2.3790097025524669e-002 3.1548123149517230e-003
      6.3307541400926218e-002 3.0008508044871932e-002
      8.2811245998146293e-002 5.9740898510568095e-002
      1.6052603465204290e-002 7.6247322101138000e-003
      -5.7387567339470275e-003 9.1188356164038070e-003
      8.2317627529738632e-002 -6.6518449750328744e-003
      -7.0235490157481609e-002 3.7205096033235671e-002
      3.5470778993194479e-003 -4.6384428716164362e-002
      2.0587142400564397e-002 -2.5912966525211224e-002
      -6.6356952884272277e-002 -1.1777295528922743e-002
      5.0839364556610422e-002 -3.6974419619031709e-002
      -1.3590284406172807e-002 -2.3027860172046180e-002
      6.2517762501036703e-002 -2.5763372774374571e-002
      1.8287580502293184e-002 -2.8126502971014032e-004
      -4.1947885540976532e-002 -4.2995954762843444e-002
      -3.5922705572824842e-002 3.1354562663713476e-002
      2.6739230832593889e-003 -1.6832124483952732e-002
      6.0290702841525594e-002 -3.0975103316106273e-002
      2.3989180079543631e-002 1.1559947630133733e-002
      1.8853817150142119e-002 -3.7212671960819813e-003
      1.5260289867461635e-002 -6.5593170891922892e-003
      -1.5832729262660512e-002 3.9450612789834272e-003
      -6.5566594433814603e-003 -1.7469471022950347e-002
      1.3068603088407559e-002 -8.8577225623668512e-003
      -2.9854152019678198e-002 3.5126479531023068e-002
      1.1870462832039241e-002 -6.0493266899300888e-002
      1.2092736262211924e-002 2.2696085075996741e-002
      2.8936626091800102e-002 1.6644156124376305e-002
      2.4453252122989062e-002 -3.5128580772488156e-002
      3.5455240436141920e-002 -1.1239106684038633e-002
      2.5167578295742545e-002 8.8645037884280409e-003
      5.5272673107118649e-003 2.3180727128631014e-002
      -1.9809212922542240e-002 -1.0646631181943783e-002
      6.8901812511049640e-002 6.1009800217427836e-002
      2.0928270686054292e-004 -4.5226013280477697e-003
      1.3612761226789562e-002 1.2415066305311202e-002
      -1.4719817075716598e-002 1.0007203364466649e-002
      5.9838795098848013e-002 2.1210086076897502e-002
      3.0970217020220830e-003 1.8733186284083082e-002
      1.0215256463225644e-002 9.8100633740758007e-003
      -2.9054809675419270e-003 1.6963057714689371e-003
      -2.0351166508176602e-002 1.4197579663993742e-002
      1.9625466701463107e-002 -3.6459080584876485e-002
      -2.3167526316210271e-002 1.9080365353964621e-003
      2.6273170534986810e-002 2.1272690995719774e-002
      -3.9439721886199743e-002 2.2452209442495326e-002
      -1.2186892293831368e-002 2.0877065597822566e-002
      -3.0694154669937496e-002 1.1794577628914799e-002
      -4.0329587601211437e-003 -5.0906188279687429e-003
      1.3645454092876406e-002 -5.1333737663255337e-002
      -2.1475127930785350e-003 -2.1575047366244705e-002
      3.6638749643112996e-004 1.1283071212479002e-002
      -1.1649266163363746e-002 -5.5225314295881227e-002
      -2.5949753386956130e-003 2.1722303043619159e-002
      -2.4236363223688735e-002 -3.7030781766123561e-003
      -5.3992197968978665e-003 -1.5962696563987473e-002
      1.1211458507890348e-002 5.3659519347039357e-003
      -6.0236297230928870e-004 -6.8796471070767902e-003
      -3.1831994272629234e-002 1.8045859167105698e-002
      -1.3768342410190692e-002 1.0986787374511194e-002
      1.0680625514488036e-002 -4.5099155262582499e-002
      2.3360221438660368e-003 -1.7617000558969559e-002
      1.9818020704131720e-002 -1.8349215178121096e-002
      1.8714799965746629e-002 9.8497393323274153e-003
      1.7944224531246528e-002 1.4434166120448656e-002
      -4.0800241989315230e-003 -1.9303634095032445e-003
      1.3459911051561238e-002 1.1588378365468808e-002
      6.7917228507211012e-003 1.5197536713454508e-002
      1.5397519100698396e-002 -1.1001845606620552e-002
      7.4220013984243466e-002 4.8073712509046950e-003
      -1.2449502156127109e-002 2.3798191135255362e-002
      -7.2065669025436043e-003 -1.7203269231523249e-002
      8.1304343241711177e-003 8.9073956371319811e-003
      -1.4909226252050631e-002 -1.4628488138201929e-002
      1.8384459307277261e-002 1.3256150828934285e-002
      2.6651493754674682e-002 -4.4771054436797113e-003
      8.4128279139105127e-003 6.6668332151466692e-003
      -2.3712960303401153e-002 -2.7931553809841733e-002
      -3.9036669155015705e-002 -1.6316519558458902e-002
      2.0851612218153206e-002 -7.4224640461259895e-003
      3.1011755716686719e-002 -1.1587309936839478e-002
      1.0419784214329129e-002 -1.5694096188547918e-002
      5.3692577300464395e-002 -7.7338545345117813e-003
      -3.2473690867018831e-002 4.3849304205041060e-004
      1.4460304549911556e-002 2.5645785897997035e-003
      6.4753176431688931e-004 2.4568098850793300e-002
      5.9847442485311386e-003 2.8057851565888171e-002
      1.3749548016069133e-003 3.1099865680477325e-002
      1.6473860578412106e-002 5.7818663252428371e-003
      -7.5107947122182777e-003 1.5838815255836305e-003
      1.8802736351289730e-002 -1.8799383351636258e-002
      -1.4599197400377652e-002 -7.5424439536220314e-003
      -2.5554983178977937e-002 -4.2871582862994009e-004
      -2.9075389183862214e-002 8.6691365272465407e-003
      9.9018350603346031e-003 5.0418434049038291e-003
      1.7867964901477493e-002 2.8974366831086328e-003
      -1.9902089480625915e-002 2.1105715241102392e-002
      -9.5441601312473891e-003 -2.9091747194043595e-002
      -1.7180010904514112e-002 1.6892506222301772e-002
      -9.4010081763555055e-003 1.6848786514383238e-002
      5.2206949251584842e-003 6.2966764928277328e-003
      -2.2124119341741865e-002 -2.3357299689184784e-002
      -3.8796330280792216e-003 -9.6957527645584688e-003
      -2.0458780071191299e-002 -7.8930582729277790e-003
      1.9811097562611089e-002 1.9380790324542523e-002
      -7.2164028544203212e-003 -1.1981154229449486e-002
      -3.3345480136372642e-003 9.9025249500962875e-003
      1.1337715172795637e-002 -6.4503850458174595e-003
      -1.1836500146935776e-002 2.9922488184195461e-004
      -8.1767417968140101e-003 -1.1164911733905164e-002
      -6.6640577068927164e-003 -2.0632334105445054e-002
      2.7831122141989003e-003 -6.7204582761092157e-003
      3.0634703520029173e-003 -2.7960356526340872e-002
      -2.1698390507203274e-002 -4.8066898319714208e-003
      2.0192779772627199e-002 6.5055400847007141e-003
      1.4077381870253923e-002 8.4332003684766635e-004
      2.2961888897989419e-002 -1.5074513245892023e-002
      1.2619158213684461e-003 3.0204391667521424e-002
      3.6705445537180484e-002 2.6186148174435184e-002
      9.5901067463269891e-003 2.7287750945136781e-002
      -1.8807160913442172e-002 -1.0036615743879585e-002
      1.9547619368364778e-002 -2.2006512409384796e-002
      -6.0203578985304979e-003 -2.8078536643670882e-002
      7.8822344337444519e-003 -1.0409610741522317e-002
      -6.1684005383451966e-003 -4.9455239223547233e-003
      1.9379223778876603e-002 4.8056468528295284e-004
      1.2882436294842975e-002 3.4622260151379314e-002
      -2.4697795055642860e-002 2.0004161275438102e-002
      1.5658017169070731e-003 -2.4148790613229620e-004
      -1.3915487071619547e-003 -1.3252450480456073e-002
      -1.2200547989166154e-002 -8.7685477912934160e-003
      -5.0737364613889927e-003 -1.9170386397819341e-002
      -1.4626286447778880e-002 3.1161681464670472e-002
      -6.5817620217114474e-003 -2.2123954947233852e-002
      -2.9715871776307108e-003 -1.1234781667657243e-002
      -8.7635469790097904e-003 2.8808691340160012e-002
      -9.4248946807993436e-003 -2.3364047332311337e-002
      9.1204785705463840e-003 -2.8860474967141135e-003
      -2.4413439039817155e-002 -4.4426992563836977e-003
      -1.2023891413755122e-002 -2.3029506011753649e-003
      -1.4201944360879066e-002 -6.6435614164583479e-003
      4.6291349900508573e-003 -9.7166837133034860e-003
      2.1744855578045782e-002 -2.1608722540143031e-002
      1.4799473334200688e-002 2.0937766058097360e-002
      2.3887695183258490e-003 1.9961235202685373e-002
      1.5827717281655027e-002 1.3775357511691354e-002
      2.7379254465161135e-001 2.7857051067554980e-002
      -3.5631774482133426e-003 5.8065879548436249e-002
      3.2118037469071617e-002 5.3255398677333893e-002
      -5.9287451724253863e-002 3.6395907195782028e-002
      -1.9879992479506794e-002 2.5819095759881634e-002
      -4.7995439198475418e-002 2.1743831859497409e-002
      2.5743867981818593e-003 -2.7677158549526234e-002
      -5.2015154775443176e-002 -3.0749212870570156e-002
      2.7020617373794843e-002 -2.8053907184565924e-002
      -4.4172814762765480e-002 -9.2097482997588187e-003
      -2.5573889568327672e-002 -5.4124958152516105e-002
      -4.3415374210732183e-003 -6.4684384289817008e-003
      -1.1048225187344803e-002 5.2629423631984952e-002
      5.6540854199271309e-002 -1.0638430561270983e-003
      -1.6141844718619822e-002 1.7136274334897589e-002
      -3.7342759872976694e-002 -1.5842196772845485e-002
      -2.2317756069196722e-002 1.3715903615176411e-002
      -1.7519538831990628e-003 1.6801310035741653e-002
      4.1930587841484471e-002 3.1377006525645054e-002
      -6.6979488862559541e-002 -2.1640416467119023e-002
      -3.1523491250400895e-002 -5.1135514165921298e-002
      -4.6530652005514248e-002 -5.6193568831359272e-002
      3.2248640040735935e-003 5.0880722952120802e-002
      3.4074703224180117e-002 -2.4708864959360619e-002
      2.0461710563076021e-002 -9.5462705927843988e-003
      -1.8258818415721381e-002 -5.3870819050854897e-002
      -1.3262503710221073e-002 8.4620858348340398e-003
      -2.2685765333801549e-002 -3.5974568780904943e-002
      -1.1700508526985681e-002 -5.0885769948399953e-002
      -3.4944331112388954e-002 -1.2375576299478653e-002
      2.3521867812395698e-002 -7.2574091486722947e-002
      -1.1120840059659575e-003 -3.3005132281932539e-002
      -1.0113141816255271e-002 6.8814632233895074e-003
      -1.8029761355804648e-002 6.1217833496304331e-004
      5.3156521204699034e-002 -2.6163388715582946e-002
      -1.9656149920636929e-002 5.9440902892772436e-002
      4.2761179441890687e-002 4.6615124764280869e-002
      1.1073268155780525e-002 1.6417857636353745e-002
      4.7807865079213058e-002 -4.3977240482440373e-002
      5.0984697727561715e-002 -3.2784556108589533e-002
      -4.7426997519596427e-002 -7.1300548976800007e-002
      1.1270438700570993e-002 1.6684121020255752e-002
      -4.3378317096206681e-002 8.0440377204342543e-003
      -4.1768892965001518e-002 -1.4853549771031958e-002
      1.8215484233681110e-002 6.3619040582967828e-002
      -4.3726314483147274e-002 8.2341473668175527e-002
      1.6828692885286343e-002 -4.8392758161358011e-002
      -4.1386415637927824e-002 4.1783130554245785e-003
      -2.7336501643668704e-002 4.7781099746204850e-003
      -2.7205817027863084e-003 -2.2759803386762496e-002
      -2.8447218973614286e-002 4.7691053344015105e-002
      4.5210026348458880e-002 -3.8603336882514092e-002
      3.8085325971039315e-002 7.1987781268836884e-002
      -6.7810189553444587e-003 5.9628349393982615e-002
      -2.8577761765718447e-002 -2.0390888981444536e-002
      2.5185160902104563e-002 4.7729863984121740e-002
      -6.5056762691217629e-002 5.2307652565681696e-003
      5.9118908398449943e-003 1.9505984813540992e-002
      9.5105321377555209e-003 3.1547108983241832e-002
      -1.3014913982903411e-002 3.1531726088700182e-002
